{"learner":{"attributes":{"scikit_learn":"{\"_estimator_type\": \"regressor\"}"},"feature_names":["temperature_2m_mean","precipitation_sum","wind_speed_10m_max","wind_direction_10m_dominant"],"feature_types":["float","float","float","float"],"gradient_booster":{"model":{"gbtree_model_param":{"num_parallel_tree":"1","num_trees":"100"},"iteration_indptr":[0,1,2,3,4,5,6,7,8,9,10,11,12,13,14,15,16,17,18,19,20,21,22,23,24,25,26,27,28,29,30,31,32,33,34,35,36,37,38,39,40,41,42,43,44,45,46,47,48,49,50,51,52,53,54,55,56,57,58,59,60,61,62,63,64,65,66,67,68,69,70,71,72,73,74,75,76,77,78,79,80,81,82,83,84,85,86,87,88,89,90,91,92,93,94,95,96,97,98,99,100],"tree_info":[0,0,0,0,0,0,0,0,0,0,0,0,0,0,0,0,0,0,0,0,0,0,0,0,0,0,0,0,0,0,0,0,0,0,0,0,0,0,0,0,0,0,0,0,0,0,0,0,0,0,0,0,0,0,0,0,0,0,0,0,0,0,0,0,0,0,0,0,0,0,0,0,0,0,0,0,0,0,0,0,0,0,0,0,0,0,0,0,0,0,0,0,0,0,0,0,0,0,0,0],"trees":[{"base_weights":[8.374781E-8,7.285242E-1,-9.208031E-1,-3.384404E-1,1.1150539E0,-2.9910913E-1,-1.1499047E0,-4.1482505E-1,1.083783E0,1.7062598E0,2.6033837E-1,-4.833262E-1,1.5498201E0,-6.8615276E-1,-1.3421707E0,-6.6187096E-1,-1.5004925E-1,-2.682684E-1,1.5642744E0,2.1681657E0,1.252349E0,1.9494571E-1,4.3967314E0,1.6342745E0,-5.986994E-1,2.958719E0,-3.12811E-2,-7.3034614E-1,7.2384703E-1,-7.6590985E-1,-1.4076349E0,-2.0093739E-1,-1.0116335E0,-3.723362E-1,4.328985E-1,-1.4065368E-1,-4.512747E-2,9.978463E-1,9.282702E-1,1.5242347E0,4.066824E0,4.3360696E0,9.261461E-1,5.994864E-1,-2.7922323E-1,7.234633E-2,1.7104617E0,7.310772E-1,2.1731615E-2,4.9005564E-2,-7.6606864E-1,1.0192316E0,3.7585907E0,-4.3230677E-1,2.7446175E-1,-4.0914026E-1,-8.585962E-1,-2.8353825E-1,6.4546174E-1,-2.6784515E-1,-1.0452874E0,-1.4337376E0,-5.8021035E-2,-1.1613061E-1,6.1101955E-1,-3.501343E-1,-1.5393634E-1,3.175772E-1,-1.4545386E-1,2.4911569E-1,-1.7605099E-1,4.846323E-3,-2.5153685E-2,4.550195E-1,8.155411E-2,3.901524E-1,1.2028116E0,-1.3384319E-2,1.4800692E0,2.3610607E-1,1.9569026E0,1.4203346E-1,6.6401064E-1,3.9546308E-1,-4.092794E-3,1.0786954E-1,-1.4671507E-1,1.7346177E-1,-2.471537E-1,6.2060755E-2,-1.768349E-1,-2.524928E-1,1.0384906E-2,9.334631E-2,3.454618E-1,1.5904617E0,4.9851954E-1,-5.648053E-2,-1.7048053E-1,-1.8960959E-1,1.3428464E0,-2.712271E-1,-1.3261509E-1,-1.5417664E-1,5.6077193E-2,-1.602459E-1,-3.3624202E-1,-4.3591434E-1,-1.5839396E-1,-1.14980526E-1,8.451948E-2],"categories":[],"categories_nodes":[],"categories_segments":[],"categories_sizes":[],"default_left":[0,0,0,0,0,0,0,0,0,0,0,0,0,0,0,0,0,0,0,0,0,0,0,0,0,0,0,0,0,0,0,0,0,0,0,0,0,0,0,0,0,0,0,0,0,0,0,0,0,0,0,0,0,0,0,0,0,0,0,0,0,0,0,0,0,0,0,0,0,0,0,0,0,0,0,0,0,0,0,0,0,0,0,0,0,0,0,0,0,0,0,0,0,0,0,0,0,0,0,0,0,0,0,0,0,0,0,0,0,0,0],"id":0,"left_children":[1,3,5,7,9,11,13,15,17,19,21,23,25,27,29,31,33,35,37,39,41,43,45,47,49,51,53,55,57,59,61,63,65,67,69,-1,71,-1,73,75,77,79,81,83,85,-1,-1,-1,87,89,91,93,95,97,-1,99,101,-1,-1,103,105,107,109,-1,-1,-1,-1,-1,-1,-1,-1,-1,-1,-1,-1,-1,-1,-1,-1,-1,-1,-1,-1,-1,-1,-1,-1,-1,-1,-1,-1,-1,-1,-1,-1,-1,-1,-1,-1,-1,-1,-1,-1,-1,-1,-1,-1,-1,-1,-1,-1],"loss_changes":[1.0357574E3,3.558779E2,9.679407E1,2.543587E1,3.1941882E2,6.3760876E1,4.3482666E1,1.4225868E1,8.215435E0,7.56991E1,6.94702E1,4.226755E1,3.796195E1,9.750938E0,1.2163147E1,1.8014282E1,1.4026423E1,1.5787014E-1,6.9974976E0,2.187605E2,1.8811462E2,4.9465298E1,2.0313965E1,1.15958E1,1.749089E1,1.0131195E1,3.8103926E0,5.5807495E0,1.3947388E1,5.007654E0,1.0978638E1,2.1617168E1,4.3617096E0,1.30707445E1,1.2647251E1,0E0,8.472638E-3,0E0,2.677919E0,7.206857E1,1.6414343E2,1.3457422E2,1.00346634E2,6.1271175E1,1.6126015E1,0E0,0E0,0E0,2.3585203E0,3.5487592E0,7.7745285E0,1.6429424E-2,1.0602333E1,1.2527204E-1,0E0,4.96514E1,1.5332794E0,0E0,0E0,1.7746873E0,3.2772827E-1,4.619812E0,8.815044E-1,0E0,0E0,0E0,0E0,0E0,0E0,0E0,0E0,0E0,0E0,0E0,0E0,0E0,0E0,0E0,0E0,0E0,0E0,0E0,0E0,0E0,0E0,0E0,0E0,0E0,0E0,0E0,0E0,0E0,0E0,0E0,0E0,0E0,0E0,0E0,0E0,0E0,0E0,0E0,0E0,0E0,0E0,0E0,0E0,0E0,0E0,0E0,0E0],"parents":[2147483647,0,0,1,1,2,2,3,3,4,4,5,5,6,6,7,7,8,8,9,9,10,10,11,11,12,12,13,13,14,14,15,15,16,16,17,17,18,18,19,19,20,20,21,21,22,22,23,23,24,24,25,25,26,26,27,27,28,28,29,29,30,30,31,31,32,32,33,33,34,34,36,36,38,38,39,39,40,40,41,41,42,42,43,43,44,44,48,48,49,49,50,50,51,51,52,52,53,53,55,55,56,56,59,59,60,60,61,61,62,62],"right_children":[2,4,6,8,10,12,14,16,18,20,22,24,26,28,30,32,34,36,38,40,42,44,46,48,50,52,54,56,58,60,62,64,66,68,70,-1,72,-1,74,76,78,80,82,84,86,-1,-1,-1,88,90,92,94,96,98,-1,100,102,-1,-1,104,106,108,110,-1,-1,-1,-1,-1,-1,-1,-1,-1,-1,-1,-1,-1,-1,-1,-1,-1,-1,-1,-1,-1,-1,-1,-1,-1,-1,-1,-1,-1,-1,-1,-1,-1,-1,-1,-1,-1,-1,-1,-1,-1,-1,-1,-1,-1,-1,-1,-1],"split_conditions":[2.3725418E2,8.789841E1,1.4917212E1,1.8720667E1,1.9885135E2,1.8720667E1,2.5987167E2,4.3264347E1,4.191873E1,9.81025E0,2.2774834E1,8.891344E0,1.2783802E1,2.5926828E2,-3.175167E0,1.4706668E0,1.2608169E1,1.2783802E1,1.3779114E1,6.058168E0,1.07251854E2,1.7727943E1,1E-1,3.328001E2,-4.0522504E0,1.0594036E1,4.1E0,2.8206666E0,2.7169865E1,1.6981165E1,1.9224833E1,9.4775003E-1,1.4476918E1,9.449572E0,7.3901115E1,-1.4065368E-1,1.9645664E1,9.978463E-1,1.95665E1,1.9382986E2,1.2239716E2,1.4118243E1,1.9224833E1,8.826917E0,2E-1,7.234633E-2,1.7104617E0,7.310772E-1,5.3524995E-1,3.3545114E2,1.7178999E1,1.95665E1,1.9645664E1,1.9412334E1,2.7446175E-1,2.6935835E0,1.6920666E1,-2.8353825E-1,6.4546174E-1,3.230499E2,-8.100167E0,1.15E1,2.0308168E1,-1.1613061E-1,6.1101955E-1,-3.501343E-1,-1.5393634E-1,3.175772E-1,-1.4545386E-1,2.4911569E-1,-1.7605099E-1,4.846323E-3,-2.5153685E-2,4.550195E-1,8.155411E-2,3.901524E-1,1.2028116E0,-1.3384319E-2,1.4800692E0,2.3610607E-1,1.9569026E0,1.4203346E-1,6.6401064E-1,3.9546308E-1,-4.092794E-3,1.0786954E-1,-1.4671507E-1,1.7346177E-1,-2.471537E-1,6.2060755E-2,-1.768349E-1,-2.524928E-1,1.0384906E-2,9.334631E-2,3.454618E-1,1.5904617E0,4.9851954E-1,-5.648053E-2,-1.7048053E-1,-1.8960959E-1,1.3428464E0,-2.712271E-1,-1.3261509E-1,-1.5417664E-1,5.6077193E-2,-1.602459E-1,-3.3624202E-1,-4.3591434E-1,-1.5839396E-1,-1.14980526E-1,8.451948E-2],"split_indices":[3,3,2,0,3,0,3,3,3,0,0,2,2,3,0,0,0,2,2,0,3,2,1,3,0,2,1,0,2,2,0,0,0,2,3,0,0,0,0,3,3,2,0,0,1,0,0,0,0,3,0,0,0,0,0,0,0,0,0,3,0,1,0,0,0,0,0,0,0,0,0,0,0,0,0,0,0,0,0,0,0,0,0,0,0,0,0,0,0,0,0,0,0,0,0,0,0,0,0,0,0,0,0,0,0,0,0,0,0,0,0],"split_type":[0,0,0,0,0,0,0,0,0,0,0,0,0,0,0,0,0,0,0,0,0,0,0,0,0,0,0,0,0,0,0,0,0,0,0,0,0,0,0,0,0,0,0,0,0,0,0,0,0,0,0,0,0,0,0,0,0,0,0,0,0,0,0,0,0,0,0,0,0,0,0,0,0,0,0,0,0,0,0,0,0,0,0,0,0,0,0,0,0,0,0,0,0,0,0,0,0,0,0,0,0,0,0,0,0,0,0,0,0,0,0],"sum_hessian":[1.542E3,8.61E2,6.81E2,2.29E2,6.32E2,1.84E2,4.97E2,2.18E2,1.1E1,3.73E2,2.59E2,1.68E2,1.6E1,1.47E2,3.5E2,1.12E2,1.06E2,3E0,8E0,1.83E2,1.9E2,2.56E2,3E0,8E0,1.6E2,8E0,8E0,1.43E2,4E0,3.7E1,3.13E2,4.9E1,6.3E1,7.7E1,2.9E1,1E0,2E0,1E0,7E0,1.38E2,4.5E1,1.7E1,1.73E2,1.38E2,1.18E2,1E0,2E0,5E0,3E0,3.3E1,1.27E2,3E0,5E0,6E0,2E0,4.2E1,1.01E2,2E0,2E0,1.4E1,2.3E1,3.07E2,6E0,4.6E1,3E0,4.7E1,1.6E1,5E0,7.2E1,2.1E1,8E0,1E0,1E0,3E0,4E0,1.28E2,1E1,8E0,3.7E1,7E0,1E1,1.29E2,4.4E1,6.3E1,7.5E1,2.9E1,8.9E1,2E0,1E0,2.7E1,6E0,1.16E2,1.1E1,1E0,2E0,2E0,3E0,3E0,3E0,4.1E1,1E0,9E1,1.1E1,9E0,5E0,4E0,1.9E1,3E2,7E0,3E0,3E0],"tree_param":{"num_deleted":"0","num_feature":"4","num_nodes":"111","size_leaf_vector":"1"}},{"base_weights":[8.14733E-3,6.19318E-1,-5.3854173E-1,-2.2991057E-1,1.0087246E0,-1.3311757E-1,-7.402638E-1,-2.878608E-1,9.499951E-1,1.6142261E0,6.228091E-1,3.05251E-1,-3.3744526E-1,6.0250235E-1,-8.1429476E-1,-6.0405064E-2,-5.4098064E-1,-2.2802818E-1,1.4202573E0,1.1658677E0,2.882181E0,5.572347E-1,1.3416176E0,7.757582E-1,-9.319769E-2,1.6936197E0,-3.7999615E-1,1.8019911E0,2.112448E-1,-8.703643E-1,3.2734137E-2,-1.6327302E-1,1.0566094E0,-9.894157E-1,-3.186176E-1,-1.19555645E-1,-3.835837E-2,1.888425E0,1.0503054E-2,-1.9167551E-1,1.8823818E0,4.314611E0,1.2771666E0,6.938424E-1,-3.583069E-1,1.1251073E0,-2.4753557E-1,1.1120689E0,-1.9826144E-1,1.3026882E-2,6.6876334E-1,8.465408E-2,-5.650837E-1,8.7217176E-1,8.253079E-1,7.337593E-1,-6.8308425E-1,-4.361454E-1,-9.3788177E-1,6.5006906E-1,-2.6393622E-1,6.0951654E-2,-1.9295849E-1,1.7085463E-2,1.0110483E0,-3.1612116E-1,1.6997896E-1,-1.7729837E-1,1.3738203E-1,4.1193725E-3,-2.138064E-2,7.7467805E-1,1.0015093E-1,-4.4886805E-2,4.961318E-2,-1.8727207E-1,1.5300353E-1,2.8585064E-1,7.623274E-1,2.2173953E0,2.0080248E-1,6.938633E-1,-7.538174E-2,1.9458266E-1,1.8885413E0,5.236581E-1,-2.1261805E-1,-4.6987507E-2,5.3214145E-1,-1.7716876E-1,2.5921717E-1,5.246358E-1,-1.1971227E-1,6.4564473E-3,-1.6845685E-1,-1.16709284E-1,3.0819634E-1,-2.5903466E-1,-1.3797621E-1,2.8739226E-1,7.934436E-2,-1.03039674E-1,2.7777198E-1,-3.2599413E-1,1.4587711E-1,-6.572993E-2,-2.3099484E-1,-2.225592E-1,-3.029489E-1,4.1396272E-1,6.117212E-2,-1.3974969E-1,3.0565051E-2],"categories":[],"categories_nodes":[],"categories_segments":[],"categories_sizes":[],"default_left":[0,0,0,0,0,0,0,0,0,0,0,0,0,0,0,0,0,0,0,0,0,0,0,0,0,0,0,0,0,0,0,0,0,0,0,0,0,0,0,0,0,0,0,0,0,0,0,0,0,0,0,0,0,0,0,0,0,0,0,0,0,0,0,0,0,0,0,0,0,0,0,0,0,0,0,0,0,0,0,0,0,0,0,0,0,0,0,0,0,0,0,0,0,0,0,0,0,0,0,0,0,0,0,0,0,0,0,0,0,0,0,0,0],"id":1,"left_children":[1,3,5,7,9,11,13,15,17,19,21,23,25,27,29,31,33,35,37,39,41,43,-1,45,47,49,51,53,55,57,59,61,63,65,67,-1,69,71,73,75,77,79,81,83,85,87,89,91,93,-1,-1,95,97,99,-1,101,103,105,107,109,111,-1,-1,-1,-1,-1,-1,-1,-1,-1,-1,-1,-1,-1,-1,-1,-1,-1,-1,-1,-1,-1,-1,-1,-1,-1,-1,-1,-1,-1,-1,-1,-1,-1,-1,-1,-1,-1,-1,-1,-1,-1,-1,-1,-1,-1,-1,-1,-1,-1,-1,-1,-1],"loss_changes":[5.158812E2,2.4130872E2,6.655463E1,1.5999905E1,1.1583084E2,2.4466274E1,5.4567566E1,1.2633505E1,6.417636E0,1.06928375E2,7.4998604E1,1.6382448E1,1.6718367E1,1.3229302E1,2.4534637E1,1.3616402E1,1.0055155E1,1.1406115E-1,5.2601795E0,1.4140213E2,1.09443085E2,3.8144836E1,0E0,1.4577974E1,6.2987123E0,3.4385242E0,1.5786011E1,3.777649E0,1.1249116E1,1.3780609E1,6.21536E0,1.9124107E1,2.293566E1,3.9999313E0,1.5288307E1,0E0,6.1214836E-3,5.6097164E0,9.914222E-2,1.5798151E1,5.5747345E1,2.8665375E2,4.0156696E1,6.280571E1,3.0726109E1,2.5221512E1,4.704649E0,4.546434E0,3.604824E0,0E0,0E0,2.4065607E1,3.7132683E0,7.340431E-3,0E0,3.4228048E0,4.7755127E0,4.685981E0,5.145874E0,3.300366E0,1.7461846E0,0E0,0E0,0E0,0E0,0E0,0E0,0E0,0E0,0E0,0E0,0E0,0E0,0E0,0E0,0E0,0E0,0E0,0E0,0E0,0E0,0E0,0E0,0E0,0E0,0E0,0E0,0E0,0E0,0E0,0E0,0E0,0E0,0E0,0E0,0E0,0E0,0E0,0E0,0E0,0E0,0E0,0E0,0E0,0E0,0E0,0E0,0E0,0E0,0E0,0E0,0E0,0E0],"parents":[2147483647,0,0,1,1,2,2,3,3,4,4,5,5,6,6,7,7,8,8,9,9,10,10,11,11,12,12,13,13,14,14,15,15,16,16,17,17,18,18,19,19,20,20,21,21,23,23,24,24,25,25,26,26,27,27,28,28,29,29,30,30,31,31,32,32,33,33,34,34,36,36,37,37,38,38,39,39,40,40,41,41,42,42,43,43,44,44,45,45,46,46,47,47,48,48,51,51,52,52,53,53,55,55,56,56,57,57,58,58,59,59,60,60],"right_children":[2,4,6,8,10,12,14,16,18,20,22,24,26,28,30,32,34,36,38,40,42,44,-1,46,48,50,52,54,56,58,60,62,64,66,68,-1,70,72,74,76,78,80,82,84,86,88,90,92,94,-1,-1,96,98,100,-1,102,104,106,108,110,112,-1,-1,-1,-1,-1,-1,-1,-1,-1,-1,-1,-1,-1,-1,-1,-1,-1,-1,-1,-1,-1,-1,-1,-1,-1,-1,-1,-1,-1,-1,-1,-1,-1,-1,-1,-1,-1,-1,-1,-1,-1,-1,-1,-1,-1,-1,-1,-1,-1,-1,-1,-1],"split_conditions":[2.181292E2,8.789841E1,2.5364236E2,1.8993586E1,1.618219E2,1E-1,1.1090103E1,1.6055355E1,4.191873E1,1.4650656E2,2.2774834E1,1.6203999E1,8.891344E0,2.764325E2,1.7178999E1,1.5716793E1,1E-1,1.2783802E1,1.7072504E1,2E-1,8.000001E-1,2.4195107E1,1.3416176E0,2.4376917E2,3.7333343E-2,8.301917E0,3.9685838E0,2.7384192E2,5.6664996E0,-3.175167E0,1.3779114E1,5.241501E0,1.3722749E1,1.7641499E1,9.931083E0,-1.19555645E-1,1.9645664E1,7.95742E1,1.9645664E1,1.3449833E1,5.037334E0,9.44775E0,1.5711313E2,2.4066206E1,3E-1,2.23822E2,2.5146318E2,2.4179582E2,6.8977494E0,1.3026882E-2,6.6876334E-1,2.3602502E0,6.7915006E0,2E-1,8.253079E-1,2.850838E2,1.4920667E1,1.6981165E1,1.5986595E1,2.6658258E2,1.8089775E1,6.0951654E-2,-1.9295849E-1,1.7085463E-2,1.0110483E0,-3.1612116E-1,1.6997896E-1,-1.7729837E-1,1.3738203E-1,4.1193725E-3,-2.138064E-2,7.7467805E-1,1.0015093E-1,-4.4886805E-2,4.961318E-2,-1.8727207E-1,1.5300353E-1,2.8585064E-1,7.623274E-1,2.2173953E0,2.0080248E-1,6.938633E-1,-7.538174E-2,1.9458266E-1,1.8885413E0,5.236581E-1,-2.1261805E-1,-4.6987507E-2,5.3214145E-1,-1.7716876E-1,2.5921717E-1,5.246358E-1,-1.1971227E-1,6.4564473E-3,-1.6845685E-1,-1.16709284E-1,3.0819634E-1,-2.5903466E-1,-1.3797621E-1,2.8739226E-1,7.934436E-2,-1.03039674E-1,2.7777198E-1,-3.2599413E-1,1.4587711E-1,-6.572993E-2,-2.3099484E-1,-2.225592E-1,-3.029489E-1,4.1396272E-1,6.117212E-2,-1.3974969E-1,3.0565051E-2],"split_indices":[3,3,3,0,3,1,2,2,3,3,0,2,2,3,0,2,1,2,2,1,1,2,0,3,0,0,0,3,0,0,2,0,0,0,0,0,0,3,0,0,0,0,3,2,1,3,3,3,0,0,0,0,0,1,0,3,0,2,2,3,2,0,0,0,0,0,0,0,0,0,0,0,0,0,0,0,0,0,0,0,0,0,0,0,0,0,0,0,0,0,0,0,0,0,0,0,0,0,0,0,0,0,0,0,0,0,0,0,0,0,0,0,0],"split_type":[0,0,0,0,0,0,0,0,0,0,0,0,0,0,0,0,0,0,0,0,0,0,0,0,0,0,0,0,0,0,0,0,0,0,0,0,0,0,0,0,0,0,0,0,0,0,0,0,0,0,0,0,0,0,0,0,0,0,0,0,0,0,0,0,0,0,0,0,0,0,0,0,0,0,0,0,0,0,0,0,0,0,0,0,0,0,0,0,0,0,0,0,0,0,0,0,0,0,0,0,0,0,0,0,0,0,0,0,0,0,0,0,0],"sum_hessian":[1.542E3,7.28E2,8.14E2,2.29E2,4.99E2,2.71E2,5.43E2,2.19E2,1E1,1.93E2,3.06E2,8.6E1,1.85E2,2.8E1,5.15E2,1.16E2,1.03E2,3E0,7E0,1.44E2,4.9E1,3.02E2,4E0,3.9E1,4.7E1,3E0,1.82E2,6E0,2.2E1,4.83E2,3.2E1,1.07E2,9E0,3.3E1,7E1,1E0,2E0,5E0,2E0,5E1,9.4E1,2.5E1,2.4E1,2.63E2,3.9E1,2.9E1,1E1,3E0,4.4E1,1E0,2E0,5.2E1,1.3E2,4E0,2E0,1.4E1,8E0,6.6E1,4.17E2,1E1,2.2E1,6.1E1,4.6E1,7E0,2E0,3.2E1,1E0,5.2E1,1.8E1,1E0,1E0,3E0,2E0,1E0,1E0,3.1E1,1.9E1,4E1,5.4E1,1.3E1,1.2E1,1.4E1,1E1,2.62E2,1E0,5E0,3.4E1,1E1,1.9E1,8E0,2E0,2E0,1E0,2.8E1,1.6E1,3.5E1,1.7E1,3.2E1,9.8E1,3E0,1E0,2E0,1.2E1,6E0,2E0,4.1E1,2.5E1,1.15E2,3.02E2,3E0,7E0,1.4E1,8E0],"tree_param":{"num_deleted":"0","num_feature":"4","num_nodes":"113","size_leaf_vector":"1"}},{"base_weights":[1.2997983E-2,3.8010553E-1,-4.5101917E-1,-2.5813517E-1,5.5011976E-1,-4.942935E-1,6.5983665E-1,-3.6804545E-1,1.6805224E-1,7.960393E-1,1.00720175E-1,9.329308E-1,-5.133239E-1,2.0453954E0,-6.960033E-2,-1.3334142E-1,-6.0415727E-1,1.9080465E0,-1.5340284E-1,-7.931306E-1,8.7360245E-1,2.6648563E-1,-3.1875676E-1,4.3193853E-1,-6.0598224E-2,-3.6512297E-1,-6.3579327E-1,2.0850323E-1,2.6047525E0,-2.2044235E-1,2.2742717E-1,-2.2183615E-1,1.1322532E0,-1.2970464E-1,-6.698774E-1,-1.8719332E-1,3.3300529E0,-7.2756493E-1,4.2978296E-1,4.0187195E-2,-8.9776915E-1,1.3069122E0,5.0996876E-1,6.1544687E-1,-1.3253729E-1,-4.2776826E-1,1.1621444E0,8.321504E-2,-1.6118151E-1,2.3852125E-1,-3.8271907E-1,-4.580916E-1,-8.365661E-1,1.1366245E0,1.0655677E0,-3.1490436E-1,8.8158324E-2,-2.617027E-1,-3.3467744E-2,1.0131965E-1,6.4655066E-1,-1.5748546E-1,1.7832106E-1,-2.0820044E-1,1.2387168E-1,4.2480674E-1,1.3608217E0,-3.468789E-1,7.5327545E-2,-9.733856E-2,2.3132706E-1,-2.951245E-1,9.747846E-2,3.2696038E-1,1.1919367E0,8.692335E-2,6.079079E-1,1.5982923E-1,1.2333394E0,-8.673296E-2,4.0556934E-1,4.4268806E-2,-1.643094E-1,7.3220795E-1,-1.5113577E-1,-5.5075582E-2,2.4361522E-1,-8.024917E-2,-1.408315E-1,4.2147897E-3,-1.661412E-1,-2.5422636E-1,1.4154775E-1,1.4396535E-1,4.2339265E-1,-1.1333588E-1,-1.8975906E-2],"categories":[],"categories_nodes":[],"categories_segments":[],"categories_sizes":[],"default_left":[0,0,0,0,0,0,0,0,0,0,0,0,0,0,0,0,0,0,0,0,0,0,0,0,0,0,0,0,0,0,0,0,0,0,0,0,0,0,0,0,0,0,0,0,0,0,0,0,0,0,0,0,0,0,0,0,0,0,0,0,0,0,0,0,0,0,0,0,0,0,0,0,0,0,0,0,0,0,0,0,0,0,0,0,0,0,0,0,0,0,0,0,0,0,0,0,0],"id":2,"left_children":[1,3,5,7,9,11,13,15,17,19,21,23,25,27,29,31,33,35,37,39,41,43,45,-1,47,49,51,-1,53,55,-1,57,59,61,63,-1,65,67,69,-1,71,73,75,77,79,81,83,-1,-1,85,87,89,91,-1,93,95,-1,-1,-1,-1,-1,-1,-1,-1,-1,-1,-1,-1,-1,-1,-1,-1,-1,-1,-1,-1,-1,-1,-1,-1,-1,-1,-1,-1,-1,-1,-1,-1,-1,-1,-1,-1,-1,-1,-1,-1,-1],"loss_changes":[2.6301254E2,9.367764E1,3.3110947E1,8.587162E0,7.518132E1,1.8323425E1,2.6419983E1,7.9548206E0,2.1547237E1,5.4927734E1,1.691236E1,4.6195073E0,1.1547272E1,4.987797E0,2.4144256E0,8.539062E0,2.1581535E0,2.3681208E1,1.1362519E1,2.1574564E0,6.551123E1,2.4309944E1,1.1636164E1,0E0,7.934579E-1,3.2353363E0,1.2246658E1,0E0,6.8971596E0,8.698522E-1,0E0,4.9241934E0,3.3357701E0,3.174048E0,1.9321842E0,0E0,2.8102493E0,7.4226456E0,4.6264853E0,0E0,2.317052E0,1.061987E2,7.6220474E1,2.4689793E1,1.9449436E1,4.565772E0,1.1879454E1,0E0,0E0,2.3278952E0,2.7521095E0,8.59383E0,2.7432632E0,0E0,1.327138E-1,1.9764423E-1,0E0,0E0,0E0,0E0,0E0,0E0,0E0,0E0,0E0,0E0,0E0,0E0,0E0,0E0,0E0,0E0,0E0,0E0,0E0,0E0,0E0,0E0,0E0,0E0,0E0,0E0,0E0,0E0,0E0,0E0,0E0,0E0,0E0,0E0,0E0,0E0,0E0,0E0,0E0,0E0,0E0],"parents":[2147483647,0,0,1,1,2,2,3,3,4,4,5,5,6,6,7,7,8,8,9,9,10,10,11,11,12,12,13,13,14,14,15,15,16,16,17,17,18,18,19,19,20,20,21,21,22,22,24,24,25,25,26,26,28,28,29,29,31,31,32,32,33,33,34,34,36,36,37,37,38,38,40,40,41,41,42,42,43,43,44,44,45,45,46,46,49,49,50,50,51,51,52,52,54,54,55,55],"right_children":[2,4,6,8,10,12,14,16,18,20,22,24,26,28,30,32,34,36,38,40,42,44,46,-1,48,50,52,-1,54,56,-1,58,60,62,64,-1,66,68,70,-1,72,74,76,78,80,82,84,-1,-1,86,88,90,92,-1,94,96,-1,-1,-1,-1,-1,-1,-1,-1,-1,-1,-1,-1,-1,-1,-1,-1,-1,-1,-1,-1,-1,-1,-1,-1,-1,-1,-1,-1,-1,-1,-1,-1,-1,-1,-1,-1,-1,-1,-1,-1,-1],"split_conditions":[2.3725418E2,6.840926E1,1.8764418E1,1.4778999E1,2.0203426E2,8.891344E0,1.2783802E1,1.8185835E0,1.50998335E1,-2.1335E0,2.1E0,3.328001E2,2.764325E2,1.0594036E1,4.1E0,1.0915E0,1.0365251E1,2.3323118E1,1E-1,7.3901115E1,9.556084E0,8.826917E0,1.0999999E1,4.3193853E-1,5.3524995E-1,1.1525623E1,1.7709658E1,2.0850323E-1,1.9645664E1,2.0380579E1,2.2742717E-1,-5.231416E0,1.2E0,9E-1,2.741678E1,-1.8719332E-1,1.5012332E1,1.8276918E1,1.2783802E1,4.0187195E-2,1.9840375E2,8.079E0,2.1707731E1,8.5060835E0,2.0549833E1,1.5124284E1,1.8782204E1,8.321504E-2,-1.6118151E-1,1.0829958E1,2.5364236E2,-4.8980837E0,1.7000002E1,1.1366245E0,3E-1,2.0308168E1,8.8158324E-2,-2.617027E-1,-3.3467744E-2,1.0131965E-1,6.4655066E-1,-1.5748546E-1,1.7832106E-1,-2.0820044E-1,1.2387168E-1,4.2480674E-1,1.3608217E0,-3.468789E-1,7.5327545E-2,-9.733856E-2,2.3132706E-1,-2.951245E-1,9.747846E-2,3.2696038E-1,1.1919367E0,8.692335E-2,6.079079E-1,1.5982923E-1,1.2333394E0,-8.673296E-2,4.0556934E-1,4.4268806E-2,-1.643094E-1,7.3220795E-1,-1.5113577E-1,-5.5075582E-2,2.4361522E-1,-8.024917E-2,-1.408315E-1,4.2147897E-3,-1.661412E-1,-2.5422636E-1,1.4154775E-1,1.4396535E-1,4.2339265E-1,-1.1333588E-1,-1.8975906E-2],"split_indices":[3,3,0,0,3,2,2,0,0,0,1,3,3,2,1,0,2,3,1,3,0,0,1,0,0,2,2,0,0,2,0,0,1,1,2,0,0,0,2,0,3,0,2,0,0,2,2,0,0,2,3,0,1,0,1,0,0,0,0,0,0,0,0,0,0,0,0,0,0,0,0,0,0,0,0,0,0,0,0,0,0,0,0,0,0,0,0,0,0,0,0,0,0,0,0,0,0],"split_type":[0,0,0,0,0,0,0,0,0,0,0,0,0,0,0,0,0,0,0,0,0,0,0,0,0,0,0,0,0,0,0,0,0,0,0,0,0,0,0,0,0,0,0,0,0,0,0,0,0,0,0,0,0,0,0,0,0,0,0,0,0,0,0,0,0,0,0,0,0,0,0,0,0,0,0,0,0,0,0,0,0,0,0,0,0,0,0,0,0,0,0,0,0,0,0,0,0],"sum_hessian":[1.542E3,8.61E2,6.81E2,1.81E2,6.8E2,6.56E2,2.5E1,1.44E2,3.7E1,4.39E2,2.41E2,8E0,6.48E2,8E0,1.7E1,7.3E1,7.1E1,5E0,3.2E1,2E1,4.19E2,1.73E2,6.8E1,5E0,3E0,2.95E2,3.53E2,3E0,5E0,1.5E1,2E0,6.9E1,4E0,9E0,6.2E1,2E0,3E0,1.6E1,1.6E1,2E0,1.8E1,1.9E2,2.29E2,9.2E1,8.1E1,6.4E1,4E0,2E0,1E0,8E0,2.87E2,1.89E2,1.64E2,2E0,3E0,1.3E1,2E0,9E0,6E1,3E0,1E0,6E0,3E0,6.1E1,1E0,2E0,1E0,1.1E1,5E0,5E0,1.1E1,1.7E1,1E0,1.77E2,1.3E1,2.01E2,2.8E1,9.1E1,1E0,7.4E1,7E0,1.1E1,5.3E1,2E0,2E0,5E0,3E0,1.25E2,1.62E2,3.2E1,1.57E2,1.63E2,1E0,2E0,1E0,1E1,3E0],"tree_param":{"num_deleted":"0","num_feature":"4","num_nodes":"97","size_leaf_vector":"1"}},{"base_weights":[1.4427151E-2,2.97054E-1,-2.9107305E-1,2.621936E-1,3.724172E0,5.1461035E-1,-3.3408707E-1,-1.01628155E-1,4.2540267E-1,2.724414E-1,1.1990186E0,3.3855197E-1,5.779406E-1,-3.5640046E-1,2.8709263E-1,-2.5631663E-1,2.8543505E-1,9.131185E-1,1.7501655E-1,6.785378E-1,-2.198938E-1,-1.7449385E-1,-4.2140782E-1,8.359622E-1,6.684311E-2,-4.808887E-3,-5.1062775E-1,-2.2484873E-1,7.6042145E-1,1.5066512E0,3.4098732E-1,-4.3703133E-1,3.0953208E-1,8.1892663E-1,3.7430525E-2,-5.5252343E-1,4.8934427E-1,2.1233487E-1,-3.2788306E-1,1.2685367E-1,-4.351215E-1,-1.2449559E-1,3.1639817E-1,1.21713705E-1,-9.37822E-2,-1.0902564E-1,-3.0783045E-1,-1.415012E-1,2.931952E-2,4.3951175E-1,-4.6415776E-2,2.3810378E-1,1.3062167E0,-9.244085E-3,8.151491E-1,-3.8204265E-1,4.1548282E-2,9.4497675E-1,7.218495E-2,4.0886012E-1,1.9972646E-1,6.657205E-2,-4.7856785E-2,-6.499182E-2,-1.9965759E-1,5.3330306E-2,1.9134185E-1,4.0734583E-3,7.7820617E-1,-2.1878238E-1,-6.7610465E-2,3.4785724E-1,-4.989477E-2,-1.3386905E-1,6.207664E-2,-7.111736E-2,4.03483E-2],"categories":[],"categories_nodes":[],"categories_segments":[],"categories_sizes":[],"default_left":[0,0,0,0,0,0,0,0,0,0,0,0,0,0,0,0,0,0,0,0,0,0,0,0,0,0,0,0,0,0,0,0,0,0,0,0,0,0,0,0,0,0,0,0,0,0,0,0,0,0,0,0,0,0,0,0,0,0,0,0,0,0,0,0,0,0,0,0,0,0,0,0,0,0,0,0,0],"id":3,"left_children":[1,3,5,7,9,11,13,15,17,-1,-1,19,-1,21,23,25,27,29,31,33,35,37,39,-1,41,43,45,47,49,51,53,55,57,59,61,63,65,67,69,71,73,75,-1,-1,-1,-1,-1,-1,-1,-1,-1,-1,-1,-1,-1,-1,-1,-1,-1,-1,-1,-1,-1,-1,-1,-1,-1,-1,-1,-1,-1,-1,-1,-1,-1,-1,-1],"loss_changes":[1.3331302E2,9.4839005E1,2.5886448E1,4.7249542E1,2.5106506E0,8.79343E0,9.874046E0,1.4862094E1,6.688258E1,0E0,0E0,6.794434E0,0E0,7.9794846E0,1.3576294E1,1.131868E1,1.7379808E1,6.2647873E1,3.0103374E1,1.9494419E0,3.5731647E0,1.0809322E1,3.822052E0,0E0,4.667485E0,1.1499031E1,6.304741E0,2.8327947E0,2.4085169E1,1.8128513E2,8.4896324E1,3.1948439E1,5.777047E1,5.923586E-1,2.170651E-1,2.3537636E-1,1.1790478E-1,2.4580326E1,5.1849604E0,4.1285653E0,3.5800095E0,6.4408517E-1,0E0,0E0,0E0,0E0,0E0,0E0,0E0,0E0,0E0,0E0,0E0,0E0,0E0,0E0,0E0,0E0,0E0,0E0,0E0,0E0,0E0,0E0,0E0,0E0,0E0,0E0,0E0,0E0,0E0,0E0,0E0,0E0,0E0,0E0,0E0],"parents":[2147483647,0,0,1,1,2,2,3,3,4,4,5,5,6,6,7,7,8,8,11,11,13,13,14,14,15,15,16,16,17,17,18,18,19,19,20,20,21,21,22,22,24,24,25,25,26,26,27,27,28,28,29,29,30,30,31,31,32,32,33,33,34,34,35,35,36,36,37,37,38,38,39,39,40,40,41,41],"right_children":[2,4,6,8,10,12,14,16,18,-1,-1,20,-1,22,24,26,28,30,32,34,36,38,40,-1,42,44,46,48,50,52,54,56,58,60,62,64,66,68,70,72,74,76,-1,-1,-1,-1,-1,-1,-1,-1,-1,-1,-1,-1,-1,-1,-1,-1,-1,-1,-1,-1,-1,-1,-1,-1,-1,-1,-1,-1,-1,-1,-1,-1,-1,-1,-1],"split_conditions":[2.277856E2,2.2774834E1,1.1090103E1,9.768213E1,9.768213E1,9.299999E0,1.8764418E1,1.2608169E1,1.639867E2,2.724414E-1,1.1990186E0,5.6664996E0,5.779406E-1,2.5364236E2,1.8993586E1,1.4706668E0,5.163249E1,8.301917E0,1.80625E2,3.328001E2,1.6720667E1,2.8956668E0,-8.495997E0,8.359622E-1,4.1E0,1.4658676E1,7.95742E1,1.6831684E1,1.5827721E1,6.058168E0,7.4999995E0,1.4658676E1,1.8149202E2,2.3725418E2,8.891344E0,2.5208739E2,1.95665E1,2.6935835E0,2.3359337E2,1.3281023E1,1.15E1,1.8057508E1,3.1639817E-1,1.21713705E-1,-9.37822E-2,-1.0902564E-1,-3.0783045E-1,-1.415012E-1,2.931952E-2,4.3951175E-1,-4.6415776E-2,2.3810378E-1,1.3062167E0,-9.244085E-3,8.151491E-1,-3.8204265E-1,4.1548282E-2,9.4497675E-1,7.218495E-2,4.0886012E-1,1.9972646E-1,6.657205E-2,-4.7856785E-2,-6.499182E-2,-1.9965759E-1,5.3330306E-2,1.9134185E-1,4.0734583E-3,7.7820617E-1,-2.1878238E-1,-6.7610465E-2,3.4785724E-1,-4.989477E-2,-1.3386905E-1,6.207664E-2,-7.111736E-2,4.03483E-2],"split_indices":[3,0,2,3,3,1,0,0,3,0,0,0,0,3,0,0,3,0,3,3,0,0,0,0,1,2,3,2,2,0,1,2,3,3,2,3,0,0,3,2,1,2,0,0,0,0,0,0,0,0,0,0,0,0,0,0,0,0,0,0,0,0,0,0,0,0,0,0,0,0,0,0,0,0,0,0,0],"split_type":[0,0,0,0,0,0,0,0,0,0,0,0,0,0,0,0,0,0,0,0,0,0,0,0,0,0,0,0,0,0,0,0,0,0,0,0,0,0,0,0,0,0,0,0,0,0,0,0,0,0,0,0,0,0,0,0,0,0,0,0,0,0,0,0,0,0,0,0,0,0,0,0,0,0,0,0,0],"sum_hessian":[1.542E3,8.01E2,7.41E2,7.94E2,7E0,3.7E1,7.04E2,2.46E2,5.48E2,1E0,6E0,3.4E1,3E0,6.8E2,2.4E1,1.76E2,7E1,1.85E2,3.63E2,2.1E1,1.3E1,1.8E2,5E2,1E0,2.3E1,8.9E1,8.7E1,3.4E1,3.6E1,9E1,9.5E1,6.5E1,2.98E2,1.7E1,4E0,9E0,4E0,5.1E1,1.29E2,1.2E1,4.88E2,2E1,3E0,3.8E1,5.1E1,6.9E1,1.8E1,1.9E1,1.5E1,2E1,1.6E1,7.3E1,1.7E1,8.3E1,1.2E1,2.6E1,3.9E1,6E0,2.92E2,2E0,1.5E1,2E0,2E0,3E0,6E0,2E0,2E0,4.8E1,3E0,2.5E1,1.04E2,2E0,1E1,4.8E2,8E0,1.4E1,6E0],"tree_param":{"num_deleted":"0","num_feature":"4","num_nodes":"77","size_leaf_vector":"1"}},{"base_weights":[1.4907326E-2,2.3768966E-1,-1.8438497E-1,2.0907055E-1,2.790853E0,-2.275671E-1,2.784472E-1,-7.157699E-2,3.5426146E-1,2.3157518E-1,8.906996E-1,-1.24499686E-1,-3.238862E-1,9.703678E-1,-1.5246873E-1,9.662623E-3,-5.479998E-1,6.150691E-1,8.865771E-2,7.601551E-2,-3.7251854E-1,-2.2425467E-1,-4.6111104E-1,1.2508212E0,6.8696624E-1,-3.6836734E-1,1.5099615E-1,-8.070435E-2,3.8852742E-1,-7.008286E-1,-8.056213E-2,1.2138956E0,-1.4061151E-1,2.7565043E0,-2.8741961E-2,4.6488696E-1,-7.366133E-2,-2.4887055E-1,-5.785723E-1,-3.712365E-1,-5.869306E-2,-2.4244364E-1,-5.1138985E-1,4.4397107E-1,1.4229549E0,-7.7008116E-1,-1.4704557E-1,7.604281E-1,3.4567215E-2,-6.3750334E-2,7.634076E-2,2.0828141E-1,-1.8861175E-1,-1.4966904E-1,-3.354164E-1,-2.389321E-1,5.9388738E-2,2.6846406E-1,1.1055279E0,9.028689E-1,-7.812601E-2,1.816971E-1,1.7494085E0,-1.2972264E-1,1.6856268E-1,1.00226246E-1,6.2452763E-1,8.3633855E-2,-4.9020357E-2,-1.9480176E-1,-3.156432E-2,-2.412756E-1,-1.4119397E-1,-7.0276506E-2,-1.728289E-1,1.3136275E-1,-6.2266458E-2,-1.0616953E-1,-3.6985092E-2,-1.5632723E-1,1.1100412E-1,2.3847738E-1,-6.770817E-2,4.8329282E-1,7.2427444E-2,-6.426572E-2,-2.6948887E-1,-9.4665095E-2,7.276668E-2,3.9353784E-2,3.0283886E-1,-1.21902665E-2,1.197156E-1],"categories":[],"categories_nodes":[],"categories_segments":[],"categories_sizes":[],"default_left":[0,0,0,0,0,0,0,0,0,0,0,0,0,0,0,0,0,0,0,0,0,0,0,0,0,0,0,0,0,0,0,0,0,0,0,0,0,0,0,0,0,0,0,0,0,0,0,0,0,0,0,0,0,0,0,0,0,0,0,0,0,0,0,0,0,0,0,0,0,0,0,0,0,0,0,0,0,0,0,0,0,0,0,0,0,0,0,0,0,0,0,0,0],"id":4,"left_children":[1,3,5,7,9,11,13,15,17,-1,-1,19,21,23,25,27,29,31,33,35,37,39,41,-1,43,45,47,49,51,53,55,57,59,61,63,65,67,69,71,73,75,77,79,81,83,85,87,89,91,-1,-1,-1,-1,-1,-1,-1,-1,-1,-1,-1,-1,-1,-1,-1,-1,-1,-1,-1,-1,-1,-1,-1,-1,-1,-1,-1,-1,-1,-1,-1,-1,-1,-1,-1,-1,-1,-1,-1,-1,-1,-1,-1,-1],"loss_changes":[6.855118E1,5.268401E1,1.635202E1,2.9445028E1,5.85495E-1,7.365486E0,2.1019125E1,9.565284E0,3.2918697E1,0E0,0E0,1.8031137E1,5.160282E0,2.161428E1,2.9383988E0,7.289571E0,2.5153046E0,1.08775856E2,7.4308655E1,1.1733459E1,3.983467E0,5.4534826E0,1.6461029E0,0E0,4.018133E0,2.198371E0,1.3218688E0,7.6521387E0,1.318802E1,1.7169886E0,2.151562E0,1.023412E2,4.1167446E1,6.2603676E1,5.4601055E1,1.1147728E1,4.6632395E0,5.857247E0,1.0828819E0,3.204424E0,8.000337E0,3.8136065E-1,1.3043633E0,5.114856E0,9.43985E-1,4.4899702E-1,1.2582318E0,3.376938E-1,4.8218134E-1,0E0,0E0,0E0,0E0,0E0,0E0,0E0,0E0,0E0,0E0,0E0,0E0,0E0,0E0,0E0,0E0,0E0,0E0,0E0,0E0,0E0,0E0,0E0,0E0,0E0,0E0,0E0,0E0,0E0,0E0,0E0,0E0,0E0,0E0,0E0,0E0,0E0,0E0,0E0,0E0,0E0,0E0,0E0,0E0],"parents":[2147483647,0,0,1,1,2,2,3,3,4,4,5,5,6,6,7,7,8,8,11,11,12,12,13,13,14,14,15,15,16,16,17,17,18,18,19,19,20,20,21,21,22,22,24,24,25,25,26,26,27,27,28,28,29,29,30,30,31,31,32,32,33,33,34,34,35,35,36,36,37,37,38,38,39,39,40,40,41,41,42,42,43,43,44,44,45,45,46,46,47,47,48,48],"right_children":[2,4,6,8,10,12,14,16,18,-1,-1,20,22,24,26,28,30,32,34,36,38,40,42,-1,44,46,48,50,52,54,56,58,60,62,64,66,68,70,72,74,76,78,80,82,84,86,88,90,92,-1,-1,-1,-1,-1,-1,-1,-1,-1,-1,-1,-1,-1,-1,-1,-1,-1,-1,-1,-1,-1,-1,-1,-1,-1,-1,-1,-1,-1,-1,-1,-1,-1,-1,-1,-1,-1,-1,-1,-1,-1,-1,-1,-1],"split_conditions":[2.181292E2,2.2774834E1,1.7178999E1,9.768213E1,9.768213E1,1.7771753E1,1.3779114E1,2.1986542E1,9.556084E0,2.3157518E-1,8.906996E-1,5.9414997E0,2.764325E2,2.2443501E2,4E-1,2.2000003E0,1.2941501E1,2.1E0,1.07251854E2,2.555779E2,1.4208165E1,5.9414997E0,-1.2272501E0,1.2508212E0,1.0200002E1,2.3950798E2,5E-1,1.2608169E1,1E1,2.7169865E1,2.3323118E1,8.079E0,1.1298495E1,1.7388409E1,8E-1,1.7654686E1,1.24811535E1,1.35515E1,1.4920667E1,5E-1,8.301917E0,6E-1,1.5300001E1,6E-1,1.2783802E1,2.2248122E2,1.8089775E1,1.7803999E1,1.9862333E1,-6.3750334E-2,7.634076E-2,2.0828141E-1,-1.8861175E-1,-1.4966904E-1,-3.354164E-1,-2.389321E-1,5.9388738E-2,2.6846406E-1,1.1055279E0,9.028689E-1,-7.812601E-2,1.816971E-1,1.7494085E0,-1.2972264E-1,1.6856268E-1,1.00226246E-1,6.2452763E-1,8.3633855E-2,-4.9020357E-2,-1.9480176E-1,-3.156432E-2,-2.412756E-1,-1.4119397E-1,-7.0276506E-2,-1.728289E-1,1.3136275E-1,-6.2266458E-2,-1.0616953E-1,-3.6985092E-2,-1.5632723E-1,1.1100412E-1,2.3847738E-1,-6.770817E-2,4.8329282E-1,7.2427444E-2,-6.426572E-2,-2.6948887E-1,-9.4665095E-2,7.276668E-2,3.9353784E-2,3.0283886E-1,-1.21902665E-2,1.197156E-1],"split_indices":[3,0,0,3,3,2,2,2,0,0,0,0,3,3,1,1,0,1,3,3,0,0,0,0,1,3,1,0,1,2,3,0,2,2,1,2,2,2,0,1,0,1,1,1,2,3,2,0,0,0,0,0,0,0,0,0,0,0,0,0,0,0,0,0,0,0,0,0,0,0,0,0,0,0,0,0,0,0,0,0,0,0,0,0,0,0,0,0,0,0,0,0,0],"split_type":[0,0,0,0,0,0,0,0,0,0,0,0,0,0,0,0,0,0,0,0,0,0,0,0,0,0,0,0,0,0,0,0,0,0,0,0,0,0,0,0,0,0,0,0,0,0,0,0,0,0,0,0,0,0,0,0,0,0,0,0,0,0,0,0,0,0,0,0,0,0,0,0,0,0,0,0,0,0,0,0,0,0,0,0,0,0,0,0,0,0,0,0,0],"sum_hessian":[1.542E3,7.28E2,8.14E2,7.21E2,7E0,7.45E2,6.9E1,2.46E2,4.75E2,1E0,6E0,3.61E2,3.84E2,2.6E1,4.3E1,2.11E2,3.5E1,2.39E2,2.36E2,2E2,1.61E2,2.24E2,1.6E2,1E0,2.5E1,2.5E1,1.8E1,1.71E2,4E1,2.6E1,9E0,1.33E2,1.06E2,9E0,2.27E2,5.5E1,1.45E2,1.02E2,5.9E1,1.18E2,1.06E2,3.1E1,1.29E2,2E1,5E0,8E0,1.7E1,2E0,1.6E1,1.23E2,4.8E1,3.1E1,9E0,1.9E1,7E0,2E0,7E0,1.19E2,1.4E1,3E0,1.03E2,6E0,3E0,1.35E2,9.2E1,5.2E1,3E0,2.9E1,1.16E2,2.6E1,7.6E1,1.7E1,4.2E1,7.2E1,4.6E1,2.4E1,8.2E1,1.5E1,1.6E1,1.28E2,1E0,1.3E1,7E0,4E0,1E0,2E0,6E0,1.2E1,5E0,1E0,1E0,1.4E1,2E0],"tree_param":{"num_deleted":"0","num_feature":"4","num_nodes":"93","size_leaf_vector":"1"}},{"base_weights":[1.4659362E-2,-1.34324115E-2,1.0983379E0,1.6149348E-1,-1.2206406E-1,8.464948E-1,3.8382895E0,-5.5444125E-2,3.9180028E-1,4.1041225E-2,-2.0263378E-1,5.2635735E-1,1.7839937E0,1.4873003E0,2.3993011E-1,-1.5037167E-1,2.3393619E-1,7.440091E-1,7.2641075E-2,-4.598973E-3,6.650096E-1,-1.3218687E-1,-2.860101E-1,1.683287E-1,1.3032734E0,6.281644E-1,-1.04266234E-1,8.20924E-2,-4.3150082E-1,-5.0398344E-1,9.090944E-1,5.1862276E-1,7.8830614E0,-3.279228E-1,5.752799E-1,-8.230652E-2,4.281953E-1,1.7529818E0,-2.9705134E-1,-6.0983413E-1,-1.0663829E-1,-1.2326574E-1,-3.2544175E-1,3.4531653E-2,4.2664048E-1,1.8412582E0,1.7047799E-1,1.2594042E-2,7.5238514E-1,-7.461326E-2,-3.25466E-1,-7.137724E-2,-3.0488253E-1,7.59163E-2,1.1615952E0,3.5110396E-1,-2.2350108E-2,5.96701E-1,2.755424E0,-8.6264735E-1,-6.8856E-2,8.553663E-1,3.538415E-2,1.3191828E-2,-1.1073776E-1,4.0527022E-1,7.40865E-2,1.0649078E0,1.4275919E-1,-1.6257775E-1,9.8453715E-2,-2.5759548E-1,5.056865E-1,-3.5722427E-2,2.1244055E-1,-5.9219424E-2,3.555789E-2,-8.158879E-2,-1.357764E-1,1.325668E-1,-8.2159266E-2,6.880323E-1,1.8737848E-1,-1.0947693E-1,2.665022E-1],"categories":[],"categories_nodes":[],"categories_segments":[],"categories_sizes":[],"default_left":[0,0,0,0,0,0,0,0,0,0,0,0,0,0,0,0,0,0,0,0,0,0,0,0,0,0,0,0,0,0,0,0,0,0,0,0,0,0,0,0,0,0,0,0,0,0,0,0,0,0,0,0,0,0,0,0,0,0,0,0,0,0,0,0,0,0,0,0,0,0,0,0,0,0,0,0,0,0,0,0,0,0,0,0,0],"id":5,"left_children":[1,3,5,7,9,11,13,15,17,19,21,23,25,-1,-1,27,29,31,33,35,37,39,41,43,45,-1,-1,47,49,51,53,55,57,59,61,63,65,67,69,71,73,75,77,79,-1,81,83,-1,-1,-1,-1,-1,-1,-1,-1,-1,-1,-1,-1,-1,-1,-1,-1,-1,-1,-1,-1,-1,-1,-1,-1,-1,-1,-1,-1,-1,-1,-1,-1,-1,-1,-1,-1,-1,-1],"loss_changes":[4.6987453E1,2.8618456E1,2.3662384E1,2.884992E1,1.2216628E1,1.0165731E1,6.238785E0,8.221287E0,3.1420937E1,8.774296E0,3.615572E0,7.84721E0,6.6726036E0,0E0,0E0,1.47397175E1,3.732589E1,2.0991461E2,2.9986813E1,9.721082E0,2.2501331E1,4.071856E0,1.7823906E0,3.4737582E0,5.170946E0,0E0,0E0,1.196074E1,1.1912283E1,4.665002E0,7.482738E1,5.033901E1,1.2420334E1,2.0147114E1,6.836061E1,8.889969E0,7.0245714E0,2.1256945E1,2.0150843E0,1.1156899E1,3.3572452E0,1.0450994E0,1.4272385E0,2.6335657E0,0E0,1.868454E0,1.8615535E0,0E0,0E0,0E0,0E0,0E0,0E0,0E0,0E0,0E0,0E0,0E0,0E0,0E0,0E0,0E0,0E0,0E0,0E0,0E0,0E0,0E0,0E0,0E0,0E0,0E0,0E0,0E0,0E0,0E0,0E0,0E0,0E0,0E0,0E0,0E0,0E0,0E0,0E0],"parents":[2147483647,0,0,1,1,2,2,3,3,4,4,5,5,6,6,7,7,8,8,9,9,10,10,11,11,12,12,15,15,16,16,17,17,18,18,19,19,20,20,21,21,22,22,23,23,24,24,27,27,28,28,29,29,30,30,31,31,32,32,33,33,34,34,35,35,36,36,37,37,38,38,39,39,40,40,41,41,42,42,43,43,45,45,46,46],"right_children":[2,4,6,8,10,12,14,16,18,20,22,24,26,-1,-1,28,30,32,34,36,38,40,42,44,46,-1,-1,48,50,52,54,56,58,60,62,64,66,68,70,72,74,76,78,80,-1,82,84,-1,-1,-1,-1,-1,-1,-1,-1,-1,-1,-1,-1,-1,-1,-1,-1,-1,-1,-1,-1,-1,-1,-1,-1,-1,-1,-1,-1,-1,-1,-1,-1,-1,-1,-1,-1,-1,-1],"split_conditions":[2.0881086E1,1.9885135E2,5.0999994E0,1.2239716E2,1.57908325E1,2.2774834E1,2.1056084E1,1.3722749E1,8.301917E0,1.5484185E1,2.6658258E2,8E-1,2.0901848E2,1.4873003E0,2.3993011E-1,3.3290002E0,1.5158522E1,8.079E0,8E-1,1.7178999E1,5.3915005E0,2.0278473E2,-1.1522499E0,2.238378E1,1.7072504E1,6.281644E-1,-1.04266234E-1,1.20695206E2,1.0128479E2,9.283539E1,8.905462E1,1.639867E2,1.35515E1,9.331083E0,1.6000001E0,1.0337335E1,1.7458168E1,2.3307445E2,2.5146318E2,5.5E0,1.3399999E1,3.372875E2,2.2734219E1,1.5711313E2,4.2664048E-1,1.4000001E0,2.1389418E1,1.2594042E-2,7.5238514E-1,-7.461326E-2,-3.25466E-1,-7.137724E-2,-3.0488253E-1,7.59163E-2,1.1615952E0,3.5110396E-1,-2.2350108E-2,5.96701E-1,2.755424E0,-8.6264735E-1,-6.8856E-2,8.553663E-1,3.538415E-2,1.3191828E-2,-1.1073776E-1,4.0527022E-1,7.40865E-2,1.0649078E0,1.4275919E-1,-1.6257775E-1,9.8453715E-2,-2.5759548E-1,5.056865E-1,-3.5722427E-2,2.1244055E-1,-5.9219424E-2,3.555789E-2,-8.158879E-2,-1.357764E-1,1.325668E-1,-8.2159266E-2,6.880323E-1,1.8737848E-1,-1.0947693E-1,2.665022E-1],"split_indices":[0,3,1,3,2,0,0,0,0,2,3,1,3,0,0,0,2,0,1,0,0,3,0,2,2,0,0,3,3,3,3,3,2,0,1,0,0,3,3,1,1,3,2,3,0,1,0,0,0,0,0,0,0,0,0,0,0,0,0,0,0,0,0,0,0,0,0,0,0,0,0,0,0,0,0,0,0,0,0,0,0,0,0,0,0],"split_type":[0,0,0,0,0,0,0,0,0,0,0,0,0,0,0,0,0,0,0,0,0,0,0,0,0,0,0,0,0,0,0,0,0,0,0,0,0,0,0,0,0,0,0,0,0,0,0,0,0,0,0,0,0,0,0,0,0,0,0,0,0,0,0,0,0,0,0,0,0,0,0,0,0,0,0,0,0,0,0,0,0,0,0,0,0],"sum_hessian":[1.542E3,1.504E3,3.8E1,5.76E2,9.28E2,3.6E1,2E0,2.97E2,2.79E2,3.07E2,6.21E2,2.8E1,8E0,1E0,1E0,2.24E2,7.3E1,1.32E2,1.47E2,2.87E2,2E1,3.38E2,2.83E2,2E1,8E0,7E0,1E0,1.23E2,1.01E2,3.5E1,3.8E1,1.29E2,3E0,8.2E1,6.5E1,2.44E2,4.3E1,9E0,1.1E1,1.6E1,3.22E2,5.6E1,2.27E2,1.9E1,1E0,5E0,3E0,1.22E2,1E0,8E1,2.1E1,2.4E1,1.1E1,3.2E1,6E0,6.1E1,6.8E1,1E0,2E0,2E0,8E1,1E1,5.5E1,1.7E2,7.4E1,6E0,3.7E1,3E0,6E0,8E0,3E0,1.5E1,1E0,3.18E2,4E0,4.3E1,1.3E1,1.62E2,6.5E1,8E0,1.1E1,3E0,2E0,2E0,1E0],"tree_param":{"num_deleted":"0","num_feature":"4","num_nodes":"85","size_leaf_vector":"1"}},{"base_weights":[1.6960213E-2,-9.069602E-3,7.7863777E-1,9.7586274E-2,-1.4058235E-1,4.9751845E-1,3.2654316E0,6.30154E-2,1.0116138E0,6.127495E-2,-1.907844E-1,2.9795662E-1,1.3070066E0,1.1225666E0,2.0394059E-1,1.8350929E-1,-8.3425835E-2,6.576129E0,3.792868E-1,-1.1570551E-1,2.5321932E0,-6.218028E-1,-1.6127065E-1,-1.0514883E-2,6.2321687E-1,5.728882E-1,6.244298E-1,1.11736886E-1,1.1894197E0,-1.4159797E-1,6.392749E-1,2.9268148E0,3.2443214E-2,7.518564E-1,-3.665241E-1,-5.8206386E-4,-7.2583073E-1,3.7442155E0,8.111125E-2,4.5904148E-1,-1.2322198E0,6.702483E-1,-1.8295798E-1,-1.319221E-1,3.626444E-1,8.039135E-1,-2.5537366E-1,-4.0871793E-1,5.072201E-1,4.641522E-2,-5.447096E-1,1.5268867E0,1.0854074E-1,-1.7650062E-1,-1.005769E-2,1.5764099E-2,4.1049176E-1,1.3784613E-1,9.0217555E-1,3.1490933E-2,-1.4925563E-1,-3.0650701E-2,7.922472E-1,-4.232745E-1,-7.452218E-2,1.0639122E-1,1.6051036E0,5.6403774E-1,-3.4358066E-1,-2.2143476E-2,1.0279918E0,-3.9911905E-1,1.2442439E-1,-2.3786381E-1,6.112879E-1,-2.515926E-1,-4.512384E-2,7.458333E-2,-1.0678456E-1,5.3834647E-1,1.8547277E-1,2.900398E-2,-1.2148545E-1,1.0261424E-1,-2.3189667E-1],"categories":[],"categories_nodes":[],"categories_segments":[],"categories_sizes":[],"default_left":[0,0,0,0,0,0,0,0,0,0,0,0,0,0,0,0,0,0,0,0,0,0,0,0,0,0,0,0,0,0,0,0,0,0,0,0,0,0,0,0,0,0,0,0,0,0,0,0,0,0,0,0,0,0,0,0,0,0,0,0,0,0,0,0,0,0,0,0,0,0,0,0,0,0,0,0,0,0,0,0,0,0,0,0,0],"id":6,"left_children":[1,3,5,7,9,11,13,15,17,19,21,23,25,-1,-1,27,29,31,33,35,37,39,41,43,45,47,-1,49,51,53,55,-1,-1,57,59,61,63,65,67,69,71,73,75,77,-1,79,81,83,-1,-1,-1,-1,-1,-1,-1,-1,-1,-1,-1,-1,-1,-1,-1,-1,-1,-1,-1,-1,-1,-1,-1,-1,-1,-1,-1,-1,-1,-1,-1,-1,-1,-1,-1,-1,-1],"loss_changes":[3.0599085E1,2.0955442E1,3.4028767E1,2.6005207E1,6.7911015E0,7.203088E0,3.615963E0,1.4060948E1,1.0306355E2,5.889176E1,6.7181587E0,3.91956E0,3.9242563E0,0E0,0E0,3.1417015E1,1.5225297E1,6.064798E1,8.055834E0,8.849782E0,2.643319E1,2.2997677E1,9.1934395E0,3.2682126E0,3.221706E0,7.274736E0,0E0,3.4163364E1,9.176694E1,1.6105782E1,1.1477156E1,0E0,0E0,1.1146964E1,6.698564E-1,2.8981367E1,6.191025E0,3.0767181E1,1.0978352E1,2.0809742E1,4.1090508E0,2.762402E1,1.0351479E1,1.7934825E0,0E0,1.8333054E0,2.4978834E-1,1.3583269E0,0E0,0E0,0E0,0E0,0E0,0E0,0E0,0E0,0E0,0E0,0E0,0E0,0E0,0E0,0E0,0E0,0E0,0E0,0E0,0E0,0E0,0E0,0E0,0E0,0E0,0E0,0E0,0E0,0E0,0E0,0E0,0E0,0E0,0E0,0E0,0E0,0E0],"parents":[2147483647,0,0,1,1,2,2,3,3,4,4,5,5,6,6,7,7,8,8,9,9,10,10,11,11,12,12,15,15,16,16,17,17,18,18,19,19,20,20,21,21,22,22,23,23,24,24,25,25,27,27,28,28,29,29,30,30,33,33,34,34,35,35,36,36,37,37,38,38,39,39,40,40,41,41,42,42,43,43,45,45,46,46,47,47],"right_children":[2,4,6,8,10,12,14,16,18,20,22,24,26,-1,-1,28,30,32,34,36,38,40,42,44,46,48,-1,50,52,54,56,-1,-1,58,60,62,64,66,68,70,72,74,76,78,-1,80,82,84,-1,-1,-1,-1,-1,-1,-1,-1,-1,-1,-1,-1,-1,-1,-1,-1,-1,-1,-1,-1,-1,-1,-1,-1,-1,-1,-1,-1,-1,-1,-1,-1,-1,-1,-1,-1,-1],"split_conditions":[2.0549833E1,1.7709658E1,5.0999994E0,1.7555305E1,1.5711313E2,2.2774834E1,2.1056084E1,9.212335E0,1.757744E1,1.4857056E2,1.7908336E2,3E-1,1.4618837E1,1.1225666E0,2.0394059E-1,8.079E0,8.8E0,6.289417E0,2.5006189E2,1.2606051E2,3.7999997E0,1.6000001E0,1.8435687E2,2.238378E1,1.8416384E1,1E-1,6.244298E-1,7.729E0,8.301917E0,1.1908168E1,1.6012333E1,2.9268148E0,3.2443214E-2,2.3640054E2,-5.716833E0,1.20695206E2,1.3918175E2,2.8415E0,2.498333E-1,1.5000001E0,1.32E1,2.1626984E1,1.9382986E2,1.639867E2,3.626444E-1,7.95742E1,2.0714417E1,9.768213E1,5.072201E-1,4.641522E-2,-5.447096E-1,1.5268867E0,1.0854074E-1,-1.7650062E-1,-1.005769E-2,1.5764099E-2,4.1049176E-1,1.3784613E-1,9.0217555E-1,3.1490933E-2,-1.4925563E-1,-3.0650701E-2,7.922472E-1,-4.232745E-1,-7.452218E-2,1.0639122E-1,1.6051036E0,5.6403774E-1,-3.4358066E-1,-2.2143476E-2,1.0279918E0,-3.9911905E-1,1.2442439E-1,-2.3786381E-1,6.112879E-1,-2.515926E-1,-4.512384E-2,7.458333E-2,-1.0678456E-1,5.3834647E-1,1.8547277E-1,2.900398E-2,-1.2148545E-1,1.0261424E-1,-2.3189667E-1],"split_indices":[0,2,1,2,3,0,0,0,2,3,3,1,2,0,0,0,1,0,3,3,1,1,3,2,2,1,0,0,0,0,0,0,0,3,0,3,3,0,0,1,1,2,3,3,0,3,0,3,0,0,0,0,0,0,0,0,0,0,0,0,0,0,0,0,0,0,0,0,0,0,0,0,0,0,0,0,0,0,0,0,0,0,0,0,0],"split_type":[0,0,0,0,0,0,0,0,0,0,0,0,0,0,0,0,0,0,0,0,0,0,0,0,0,0,0,0,0,0,0,0,0,0,0,0,0,0,0,0,0,0,0,0,0,0,0,0,0,0,0,0,0,0,0,0,0,0,0,0,0,0,0,0,0,0,0,0,0,0,0,0,0,0,0,0,0,0,0,0,0,0,0,0,0],"sum_hessian":[1.542E3,1.492E3,5E1,8.24E2,6.68E2,4.6E1,4E0,7.95E2,2.9E1,1.33E2,5.35E2,3.8E1,8E0,3E0,1E0,4.36E2,3.59E2,2E0,2.7E1,1.25E2,8E0,3.3E1,5.02E2,2E1,1.8E1,5E0,3E0,4.08E2,2.8E1,3.33E2,2.6E1,1E0,1E0,1.8E1,9E0,1.06E2,1.9E1,5E0,3E0,1.2E1,2.1E1,1.2E1,4.9E2,1.9E1,1E0,1.5E1,3E0,3E0,2E0,4E2,8E0,4E0,2.4E1,6.4E1,2.69E2,1.5E1,1.1E1,1.7E1,1E0,2E0,7E0,1.03E2,3E0,7E0,1.2E1,2E0,3E0,1E0,2E0,1.1E1,1E0,2E1,1E0,6E0,6E0,2.2E1,4.68E2,7E0,1.2E1,1E0,1.4E1,1E0,2E0,1E0,2E0],"tree_param":{"num_deleted":"0","num_feature":"4","num_nodes":"85","size_leaf_vector":"1"}},{"base_weights":[1.9359237E-2,1.3952119E-3,7.1208996E-1,1.2066197E-1,-7.628664E-2,5.21902E-1,2.820377E0,-2.9939646E-2,3.54126E-1,-8.378388E-2,5.454222E-1,8.0973923E-1,2.0659636E-1,1.0958203E0,1.7334953E-1,4.4512425E-2,-7.2680646E-1,1.4759917E0,2.2422647E-1,-3.2714632E-1,-6.728808E-2,-5.404074E-1,1.0201592E0,9.7848034E-1,-1.2491202E-1,-1.3957462E-1,8.1997156E-1,-3.038566E-2,3.4834654E0,3.4267592E-1,-1.1101918E0,-9.3340576E-1,2.0045414E0,5.370924E-1,-2.1562277E-1,-9.3446545E-2,-9.2016155E-1,3.4287176E-1,-8.5940704E-2,-1.7647166E-2,-2.043982E-1,-6.396983E-2,3.68046E-1,1.6369754E-1,1.1413839E0,-3.9584997E-1,8.466266E-1,3.2511115E-2,4.2073175E-1,-2.6648857E-2,1.8343729E-1,-1.6161172E-1,1.9904312E0,-2.960809E-1,2.3953381E-1,-6.957164E-1,-1.8947408E-1,-5.897432E-1,4.7943208E-1,1.9868067E-1,1.0714535E0,1.0889615E-1,1.3720134E0,-3.096738E-1,2.6765063E-2,3.9167687E-2,-1.3968463E-1,-3.6444762E-1,8.026083E-2,2.4913229E-1,-3.3925228E-2,-3.2178458E-2,3.3810604E-2,7.3309666E-3,8.722208E-2,1.7527288E-1,4.4586283E-1,-2.1465668E-1,-3.060824E-3,7.2734214E-2,3.0824777E-1,5.1053833E-2,-5.7074085E-2],"categories":[],"categories_nodes":[],"categories_segments":[],"categories_sizes":[],"default_left":[0,0,0,0,0,0,0,0,0,0,0,0,0,0,0,0,0,0,0,0,0,0,0,0,0,0,0,0,0,0,0,0,0,0,0,0,0,0,0,0,0,0,0,0,0,0,0,0,0,0,0,0,0,0,0,0,0,0,0,0,0,0,0,0,0,0,0,0,0,0,0,0,0,0,0,0,0,0,0,0,0,0,0],"id":7,"left_children":[1,3,5,7,9,11,13,15,17,19,21,23,25,-1,-1,27,29,31,33,35,37,39,41,43,-1,45,47,49,51,53,55,57,59,61,63,65,67,69,71,-1,-1,-1,-1,73,75,77,79,81,-1,-1,-1,-1,-1,-1,-1,-1,-1,-1,-1,-1,-1,-1,-1,-1,-1,-1,-1,-1,-1,-1,-1,-1,-1,-1,-1,-1,-1,-1,-1,-1,-1,-1,-1],"loss_changes":[1.9200457E1,1.3952822E1,1.4165892E1,2.0895676E1,4.2966213E0,3.1907082E0,3.489132E0,1.8814064E1,3.3624092E1,3.5990272E0,6.2216206E0,4.3384285E0,4.148769E0,0E0,0E0,8.4589134E1,1.4731268E1,3.2434723E1,2.9014717E1,7.8135033E0,6.5018377E0,2.3138046E-1,2.300747E0,2.0695858E0,0E0,3.6207452E0,3.1650963E0,1.2133114E1,9.22998E1,6.84799E0,1.3578297E1,1.6209305E1,3.9700714E1,8.477673E1,2.1998734E1,3.562241E0,5.924553E0,8.319381E0,3.4426203E0,0E0,0E0,0E0,0E0,6.366368E-2,1.8213234E0,1.3487877E0,7.871318E-2,1.5504304E-1,0E0,0E0,0E0,0E0,0E0,0E0,0E0,0E0,0E0,0E0,0E0,0E0,0E0,0E0,0E0,0E0,0E0,0E0,0E0,0E0,0E0,0E0,0E0,0E0,0E0,0E0,0E0,0E0,0E0,0E0,0E0,0E0,0E0,0E0,0E0],"parents":[2147483647,0,0,1,1,2,2,3,3,4,4,5,5,6,6,7,7,8,8,9,9,10,10,11,11,12,12,15,15,16,16,17,17,18,18,19,19,20,20,21,21,22,22,23,23,25,25,26,26,27,27,28,28,29,29,30,30,31,31,32,32,33,33,34,34,35,35,36,36,37,37,38,38,43,43,44,44,45,45,46,46,47,47],"right_children":[2,4,6,8,10,12,14,16,18,20,22,24,26,-1,-1,28,30,32,34,36,38,40,42,44,-1,46,48,50,52,54,56,58,60,62,64,66,68,70,72,-1,-1,-1,-1,74,76,78,80,82,-1,-1,-1,-1,-1,-1,-1,-1,-1,-1,-1,-1,-1,-1,-1,-1,-1,-1,-1,-1,-1,-1,-1,-1,-1,-1,-1,-1,-1,-1,-1,-1,-1,-1,-1],"split_conditions":[2.0881086E1,2.0203426E2,5.0999994E0,1.4650656E2,1.37E1,1.80625E2,2.1056084E1,1.374943E2,1.5577228E2,2.1057391E2,8.347749E0,1.8416384E1,1E-1,1.0958203E0,1.7334953E-1,1.3640907E2,4.8789997E0,1.7102499E0,1.7654686E1,2.081961E2,2.164927E2,-3.0772502E0,8.12197E0,1.3039754E1,-1.2491202E-1,1.8204042E1,2.1389418E1,9.1E0,5.2852497E0,2.1269164E0,9.556084E0,1.4000001E0,1.5238425E2,1.7555305E1,1.9523155E1,9.658168E0,2.6000001E0,6.289417E0,1.6637335E1,-1.7647166E-2,-2.043982E-1,-6.396983E-2,3.68046E-1,2.2337334E1,1.20695206E2,1.9441222E2,2.1389418E1,1.4658676E1,4.2073175E-1,-2.6648857E-2,1.8343729E-1,-1.6161172E-1,1.9904312E0,-2.960809E-1,2.3953381E-1,-6.957164E-1,-1.8947408E-1,-5.897432E-1,4.7943208E-1,1.9868067E-1,1.0714535E0,1.0889615E-1,1.3720134E0,-3.096738E-1,2.6765063E-2,3.9167687E-2,-1.3968463E-1,-3.6444762E-1,8.026083E-2,2.4913229E-1,-3.3925228E-2,-3.2178458E-2,3.3810604E-2,7.3309666E-3,8.722208E-2,1.7527288E-1,4.4586283E-1,-2.1465668E-1,-3.060824E-3,7.2734214E-2,3.0824777E-1,5.1053833E-2,-5.7074085E-2],"split_indices":[0,3,1,3,1,3,0,3,3,3,0,2,1,0,0,3,0,0,2,3,3,0,2,2,0,2,0,1,0,0,0,1,3,2,2,0,1,0,0,0,0,0,0,0,3,3,0,2,0,0,0,0,0,0,0,0,0,0,0,0,0,0,0,0,0,0,0,0,0,0,0,0,0,0,0,0,0,0,0,0,0,0,0],"split_type":[0,0,0,0,0,0,0,0,0,0,0,0,0,0,0,0,0,0,0,0,0,0,0,0,0,0,0,0,0,0,0,0,0,0,0,0,0,0,0,0,0,0,0,0,0,0,0,0,0,0,0,0,0,0,0,0,0,0,0,0,0,0,0,0,0,0,0,0,0,0,0,0,0,0,0,0,0,0,0,0,0,0,0],"sum_hessian":[1.542E3,1.504E3,3.8E1,5.93E2,9.11E2,3.6E1,2E0,3.61E2,2.32E2,9.01E2,1E1,1.8E1,1.8E1,1E0,1E0,3.27E2,3.4E1,2.3E1,2.09E2,5.6E1,8.45E2,3E0,7E0,1.6E1,2E0,1.2E1,6E0,3.21E2,6E0,9E0,2.5E1,4E0,1.9E1,1.22E2,8.7E1,4.1E1,1.5E1,3.6E1,8.09E2,1E0,2E0,1E0,6E0,3E0,1.3E1,1E1,2E0,3E0,3E0,2.95E2,2.6E1,3E0,3E0,2E0,7E0,6E0,1.9E1,3E0,1E0,1.1E1,8E0,1.18E2,4E0,2.3E1,6.4E1,2.6E1,1.5E1,1.2E1,3E0,1.7E1,1.9E1,7.31E2,7.8E1,2E0,1E0,6E0,7E0,5E0,5E0,1E0,1E0,2E0,1E0],"tree_param":{"num_deleted":"0","num_feature":"4","num_nodes":"83","size_leaf_vector":"1"}},{"base_weights":[1.7280392E-2,3.5214446E-2,-4.344036E-1,1.4783565E-2,9.930119E-1,-7.072122E-1,8.2032615E-1,9.481832E-1,6.3643144E-3,2.297275E0,1.6080338E-1,-9.993596E-1,-1.4854954E-1,2.1227804E-1,1.1374568E0,5.508516E-1,8.5742444E-1,-8.329986E-3,5.498859E-1,1.1042275E-1,3.3768985E0,5.2350044E-1,-1.1216314E-1,-1.5071836E0,-5.725757E-1,-5.712112E-1,3.3758005E-1,1.0679146E-1,-5.4374386E-2,4.0350822E-1,-1.6195E-2,1.1954086E0,-8.0318965E-2,2.8340355E-2,-1.7556019E-1,3.9691937E-1,9.3144727E-1,-5.4116696E-1,4.0751725E-1,2.1155858E0,1.844469E0,-2.6298475E-1,3.6777067E-1,-9.1410905E-2,-1.8849932E0,2.1988776E-1,-7.349056E-1,-2.6476926E-1,-3.1169367E-1,-4.3379655E-1,7.955678E-1,4.279336E-1,6.033826E-3,1.408731E-1,-1.8304056E-1,3.1698593E-3,5.1569015E-1,-1.24366775E-1,-1.0924898E-2,4.313036E-1,9.842216E-2,-2.4267147E-1,3.9307024E-2,1.9536344E-2,9.488099E-1,-2.7172044E-1,-1.8167187E-2,3.9133288E-2,-1.13546476E-1,-6.566349E-1,-2.4184965E-1,1.7819653E-1,-3.084258E-2,1.01745956E-1,-2.4873592E-1,1.22589115E-2,-1.1317909E-1,-1.5000094E-2,-1.6351858E-1,3.4420812E-1,1.8396545E-2],"categories":[],"categories_nodes":[],"categories_segments":[],"categories_sizes":[],"default_left":[0,0,0,0,0,0,0,0,0,0,0,0,0,0,0,0,0,0,0,0,0,0,0,0,0,0,0,0,0,0,0,0,0,0,0,0,0,0,0,0,0,0,0,0,0,0,0,0,0,0,0,0,0,0,0,0,0,0,0,0,0,0,0,0,0,0,0,0,0,0,0,0,0,0,0,0,0,0,0,0,0],"id":8,"left_children":[1,3,5,7,9,11,13,15,17,19,21,23,25,27,29,31,-1,33,35,37,39,-1,41,43,45,47,49,-1,-1,-1,-1,51,53,55,57,59,-1,61,-1,-1,63,65,-1,67,69,71,73,-1,75,77,79,-1,-1,-1,-1,-1,-1,-1,-1,-1,-1,-1,-1,-1,-1,-1,-1,-1,-1,-1,-1,-1,-1,-1,-1,-1,-1,-1,-1,-1,-1],"loss_changes":[1.2514409E1,2.904476E1,2.077591E1,1.142812E1,3.327858E1,7.8489285E0,1.8796806E0,8.290838E0,1.1529345E1,2.7958836E1,8.844384E0,6.07242E0,3.8912601E0,3.4725472E-1,1.8037643E0,4.9779186E0,0E0,8.627113E0,1.3618798E1,4.800932E0,3.204698E1,0E0,3.9549587E0,7.316187E0,2.6057663E0,5.329261E-1,3.5246434E0,0E0,0E0,0E0,0E0,1.6005287E0,2.3259122E0,3.465892E1,8.398365E0,2.1794438E0,0E0,8.2586896E-1,0E0,0E0,1.6213175E1,2.1570253E0,0E0,3.0413005E-1,1.8405838E0,5.439508E-1,1.9002638E0,0E0,1.7723608E-1,1.4355958E-1,1.4794552E0,0E0,0E0,0E0,0E0,0E0,0E0,0E0,0E0,0E0,0E0,0E0,0E0,0E0,0E0,0E0,0E0,0E0,0E0,0E0,0E0,0E0,0E0,0E0,0E0,0E0,0E0,0E0,0E0,0E0,0E0],"parents":[2147483647,0,0,1,1,2,2,3,3,4,4,5,5,6,6,7,7,8,8,9,9,10,10,11,11,12,12,13,13,14,14,15,15,17,17,18,18,19,19,20,20,22,22,23,23,24,24,25,25,26,26,31,31,32,32,33,33,34,34,35,35,37,37,40,40,41,41,43,43,44,44,45,45,46,46,48,48,49,49,50,50],"right_children":[2,4,6,8,10,12,14,16,18,20,22,24,26,28,30,32,-1,34,36,38,40,-1,42,44,46,48,50,-1,-1,-1,-1,52,54,56,58,60,-1,62,-1,-1,64,66,-1,68,70,72,74,-1,76,78,80,-1,-1,-1,-1,-1,-1,-1,-1,-1,-1,-1,-1,-1,-1,-1,-1,-1,-1,-1,-1,-1,-1,-1,-1,-1,-1,-1,-1,-1,-1],"split_conditions":[1.05E1,8.9E0,1.594775E1,8.12197E0,1.639867E2,2.0728563E2,1.7295666E1,1.5000002E0,2.0881086E1,4.099833E0,8.900001E0,1.4399999E1,1.37E1,1.6470667E1,2.764325E2,1.0915E0,8.5742444E-1,1.5176915E1,5.0999994E0,2.1707731E1,7.729E0,5.2350044E-1,3.0978832E1,5.623334E-1,1.4118243E1,2.3059314E2,8.347749E0,1.0679146E-1,-5.4374386E-2,4.0350822E-1,-1.6195E-2,3.328001E2,8.61509E1,1.5012332E1,1.6720667E1,7.95742E1,9.3144727E-1,1.5956669E0,4.0751725E-1,2.1155858E0,1.3539417E1,1.8435687E2,3.6777067E-1,-5.564168E-1,2.2127556E1,1.0779E1,1.4500002E1,-2.6476926E-1,3.2977505E0,-3.0772502E0,1.5500001E1,4.279336E-1,6.033826E-3,1.408731E-1,-1.8304056E-1,3.1698593E-3,5.1569015E-1,-1.24366775E-1,-1.0924898E-2,4.313036E-1,9.842216E-2,-2.4267147E-1,3.9307024E-2,1.9536344E-2,9.488099E-1,-2.7172044E-1,-1.8167187E-2,3.9133288E-2,-1.13546476E-1,-6.566349E-1,-2.4184965E-1,1.7819653E-1,-3.084258E-2,1.01745956E-1,-2.4873592E-1,1.22589115E-2,-1.1317909E-1,-1.5000094E-2,-1.6351858E-1,3.4420812E-1,1.8396545E-2],"split_indices":[1,1,0,2,3,3,0,1,0,0,1,1,1,0,3,0,0,0,1,2,0,0,2,0,2,3,0,0,0,0,0,3,3,0,0,3,0,0,0,0,0,3,0,0,2,0,1,0,0,0,1,0,0,0,0,0,0,0,0,0,0,0,0,0,0,0,0,0,0,0,0,0,0,0,0,0,0,0,0,0,0],"split_type":[0,0,0,0,0,0,0,0,0,0,0,0,0,0,0,0,0,0,0,0,0,0,0,0,0,0,0,0,0,0,0,0,0,0,0,0,0,0,0,0,0,0,0,0,0,0,0,0,0,0,0,0,0,0,0,0,0,0,0,0,0,0,0,0,0,0,0,0,0,0,0,0,0,0,0,0,0,0,0,0,0],"sum_hessian":[1.542E3,1.484E3,5.8E1,1.454E3,3E1,4.8E1,1E1,1.2E1,1.442E3,1.1E1,1.9E1,3.1E1,1.7E1,4E0,6E0,1.1E1,1E0,1.405E3,3.7E1,4E0,7E0,2E0,1.7E1,1.3E1,1.8E1,9E0,8E0,3E0,1E0,5E0,1E0,5E0,6E0,1.153E3,2.52E2,3.6E1,1E0,3E0,1E0,1E0,6E0,1.6E1,1E0,3E0,1E1,3E0,1.5E1,3E0,6E0,3E0,5E0,4E0,1E0,3E0,3E0,1.142E3,1.1E1,9.2E1,1.6E2,1E0,3.5E1,2E0,1E0,3E0,3E0,3E0,1.3E1,2E0,1E0,7E0,3E0,1E0,2E0,1E0,1.4E1,1E0,5E0,1E0,2E0,3E0,2E0],"tree_param":{"num_deleted":"0","num_feature":"4","num_nodes":"81","size_leaf_vector":"1"}},{"base_weights":[1.6159154E-2,8.63759E-2,-7.5461134E-2,-3.3108407E-1,1.2712307E-1,1.5079321E-1,-9.160488E-2,-3.705162E-1,4.0577856E-1,4.3583715E-1,4.272558E-2,5.4556775E-1,9.897208E-2,-1.0159988E-1,1.8742146E-1,-1.7127503E-1,-8.3085304E-1,7.9325974E-1,-3.3242252E-1,-2.0680447E-1,1.8681902E-1,4.109584E-2,1.8404E-1,2.762429E-3,3.3124855E-1,-3.512383E-1,-8.5655E-2,6.617591E-1,-1.3735947E-2,-2.555375E-1,9.6695584E-1,-3.8286716E-1,-5.5623937E-1,3.1026888E-1,1.6172378E0,1.1443197E0,-5.0298315E-1,-3.3756247E-1,1.0967145E-1,1.9815422E0,1.21350385E-1,4.081948E-1,-9.465184E-2,-5.705909E-2,7.29066E-1,-6.344224E-1,-2.179205E-1,-2.0208262E-2,-1.3635913E-1,1.368114E-1,-1.1736705E-1,7.927008E-2,-9.493629E-2,4.7225814E-2,5.093348E-1,6.426413E-2,-2.0448154E-1,2.627298E-1,-7.025518E-2,1.6971326E-1,9.1387916E-1,-1.2903601E-1,4.635695E-1,-1.9937642E-1,9.211796E-2,-1.754215E-1,-9.71448E-3,5.4388666E-1,-2.5321107E-2,8.573465E-2,-3.971984E-2,-8.5865736E-2,1.8129644E-1,-1.4253142E-1,7.2649852E-3,-4.714113E-2,1.7185107E-2,4.9266566E-2,2.4275716E-1,-2.208686E-1,5.754601E-2,-1.099407E-2,-1.1891253E-1,-7.602307E-2,7.2289235E-3,-6.3973434E-2,-2.1781E-2,-6.6819064E-2,2.400667E-2],"categories":[],"categories_nodes":[],"categories_segments":[],"categories_sizes":[],"default_left":[0,0,0,0,0,0,0,0,0,0,0,0,0,0,0,0,0,0,0,0,0,0,0,0,0,0,0,0,0,0,0,0,0,0,0,0,0,0,0,0,0,0,0,0,0,0,0,0,0,0,0,0,0,0,0,0,0,0,0,0,0,0,0,0,0,0,0,0,0,0,0,0,0,0,0,0,0,0,0,0,0,0,0,0,0,0,0,0,0],"id":9,"left_children":[1,3,5,7,9,11,13,15,-1,17,19,21,23,25,27,29,31,33,35,37,39,-1,-1,41,43,45,47,-1,49,51,53,-1,55,57,59,61,63,65,67,-1,69,71,73,75,77,79,81,83,85,-1,87,-1,-1,-1,-1,-1,-1,-1,-1,-1,-1,-1,-1,-1,-1,-1,-1,-1,-1,-1,-1,-1,-1,-1,-1,-1,-1,-1,-1,-1,-1,-1,-1,-1,-1,-1,-1,-1,-1],"loss_changes":[9.933066E0,1.4909104E1,2.46105E0,5.679661E0,2.0746971E1,8.665987E-1,1.7648735E0,6.919986E0,0E0,4.7219162E1,2.258282E1,5.4674625E-2,9.153217E-1,2.3780904E0,8.96284E0,5.522151E0,2.1031275E0,4.6061172E1,1.4428648E1,9.554828E0,1.6643756E2,0E0,0E0,1.2234834E0,1.8953065E0,1.2208714E0,1.8887439E0,0E0,1.0758709E0,1.7300825E0,2.09926E0,0E0,1.6914234E0,2.3296574E1,6.2891037E1,4.451905E0,6.7494106E0,1.2276699E1,2.2631443E1,0E0,1.6519028E1,9.9012667E-1,1.1421018E0,8.9103766E-2,1.3866043E-1,1.0665064E0,8.2655096E-1,2.5890903E0,1.5580297E0,0E0,3.9217943E-1,0E0,0E0,0E0,0E0,0E0,0E0,0E0,0E0,0E0,0E0,0E0,0E0,0E0,0E0,0E0,0E0,0E0,0E0,0E0,0E0,0E0,0E0,0E0,0E0,0E0,0E0,0E0,0E0,0E0,0E0,0E0,0E0,0E0,0E0,0E0,0E0,0E0,0E0],"parents":[2147483647,0,0,1,1,2,2,3,3,4,4,5,5,6,6,7,7,9,9,10,10,11,11,12,12,13,13,14,14,15,15,16,16,17,17,18,18,19,19,20,20,23,23,24,24,25,25,26,26,28,28,29,29,30,30,32,32,33,33,34,34,35,35,36,36,37,37,38,38,40,40,41,41,42,42,43,43,44,44,45,45,46,46,47,47,48,48,50,50],"right_children":[2,4,6,8,10,12,14,16,-1,18,20,22,24,26,28,30,32,34,36,38,40,-1,-1,42,44,46,48,-1,50,52,54,-1,56,58,60,62,64,66,68,-1,70,72,74,76,78,80,82,84,86,-1,88,-1,-1,-1,-1,-1,-1,-1,-1,-1,-1,-1,-1,-1,-1,-1,-1,-1,-1,-1,-1,-1,-1,-1,-1,-1,-1,-1,-1,-1,-1,-1,-1,-1,-1,-1,-1,-1,-1],"split_conditions":[2.3860588E2,-1.1210002E0,1.191812E1,2.300188E2,2.983167E0,-9.110583E0,1.8764418E1,9.768213E1,4.0577856E-1,2.0150354E1,1.5021105E1,2.7384192E2,3E-1,1.2879752E1,1.8993586E1,5.5999994E0,1.6104108E2,1.2E0,1E-1,1.9543051E2,1.5124284E1,4.109584E-2,1.8404E-1,8.891344E0,1.0086427E1,2.5248976E2,2.7549567E2,6.617591E-1,1.2783802E1,3.8642662E0,-2.9835002E0,-3.8286716E-1,1.3896187E1,1.3684735E1,1.5894662E2,2.1129885E1,2.5373333E0,1.4412334E1,4.7310834E0,1.9815422E0,1.6000001E0,2.8769757E2,-2.7605832E0,3.3191394E2,-4.0522504E0,3.8E0,6.624834E0,1.5310835E0,1E-1,1.368114E-1,1.9862333E1,7.927008E-2,-9.493629E-2,4.7225814E-2,5.093348E-1,6.426413E-2,-2.0448154E-1,2.627298E-1,-7.025518E-2,1.6971326E-1,9.1387916E-1,-1.2903601E-1,4.635695E-1,-1.9937642E-1,9.211796E-2,-1.754215E-1,-9.71448E-3,5.4388666E-1,-2.5321107E-2,8.573465E-2,-3.971984E-2,-8.5865736E-2,1.8129644E-1,-1.4253142E-1,7.2649852E-3,-4.714113E-2,1.7185107E-2,4.9266566E-2,2.4275716E-1,-2.208686E-1,5.754601E-2,-1.099407E-2,-1.1891253E-1,-7.602307E-2,7.2289235E-3,-6.3973434E-2,-2.1781E-2,-6.6819064E-2,2.400667E-2],"split_indices":[3,0,2,3,0,0,0,3,0,2,2,3,1,2,0,1,3,1,1,3,2,0,0,2,2,3,3,0,2,3,0,0,2,2,3,2,0,0,0,0,1,3,0,3,0,1,0,0,1,0,0,0,0,0,0,0,0,0,0,0,0,0,0,0,0,0,0,0,0,0,0,0,0,0,0,0,0,0,0,0,0,0,0,0,0,0,0,0,0],"split_type":[0,0,0,0,0,0,0,0,0,0,0,0,0,0,0,0,0,0,0,0,0,0,0,0,0,0,0,0,0,0,0,0,0,0,0,0,0,0,0,0,0,0,0,0,0,0,0,0,0,0,0,0,0,0,0,0,0,0,0,0,0,0,0,0,0,0,0,0,0,0,0,0,0,0,0,0,0,0,0,0,0,0,0,0,0,0,0,0,0],"sum_hessian":[1.542E3,8.73E2,6.69E2,7.7E1,7.96E2,4.4E1,6.25E2,7.6E1,1E0,1.7E2,6.26E2,4E0,4E1,6.04E2,2.1E1,5.4E1,2.2E1,1.16E2,5.4E1,2.29E2,3.97E2,1E0,3E0,2.9E1,1.1E1,3.5E1,5.69E2,1E0,2E1,5.1E1,3E0,7E0,1.5E1,7.4E1,4.2E1,5E0,4.9E1,1.62E2,6.7E1,3E0,3.94E2,5E0,2.4E1,6E0,5E0,1E1,2.5E1,2.49E2,3.2E2,3E0,1.7E1,5E0,4.6E1,2E0,1E0,2E0,1.3E1,3.6E1,3.8E1,2.5E1,1.7E1,1E0,4E0,4.1E1,8E0,8.9E1,7.3E1,6E0,6.1E1,2.39E2,1.55E2,1E0,4E0,5E0,1.9E1,3E0,3E0,1E0,4E0,9E0,1E0,1.3E1,1.2E1,3.9E1,2.1E2,1.44E2,1.76E2,1.1E1,6E0],"tree_param":{"num_deleted":"0","num_feature":"4","num_nodes":"89","size_leaf_vector":"1"}},{"base_weights":[1.4579885E-2,1.0418979E-1,-4.5725998E-2,1.3805808E-1,-4.5000485E-1,-1.12198135E-2,-1.3656622E-1,1.0421051E-1,1.748416E0,-6.79138E-1,8.0885047E-1,-3.022029E-2,4.605697E-1,-1.5492882E-1,2.8316438E-1,-3.2305878E-2,2.5854313E-1,1.6073918E0,4.9070722E-1,-1.0871803E0,-3.6420706E-1,6.661735E-2,1.0467323E0,4.7503863E-2,-8.454767E-2,7.5699955E-1,-8.941794E-2,-1.9216421E-1,2.873104E-2,-3.39204E-1,5.5895305E-1,3.12208E-2,-1.0504673E0,2.7767613E0,1.9079286E-1,3.433475E-2,4.6323943E-1,5.290836E-3,-1.4154507E0,-6.2973046E-1,7.890463E-4,3.6009067E-1,8.790336E-2,2.1525553E-1,-2.8424902E-2,-2.6176804E-1,-7.806993E-2,2.2594164E-1,9.479868E-1,1.2990908E-1,-2.5728747E-1,-3.5498735E-1,-1.4618681E-1,4.1277012E-1,-3.7685294E-2,-9.482932E-3,-1.2935966E-1,2.7083173E-1,1.7210698E-1,-3.7610058E-2,1.1199171E-1,-4.2613944E-1,3.819027E-1,-9.258332E-2,1.5503831E0,2.1186137E-1,1.8311992E-2,4.2271444E-1,-1.0900364E-1,4.6521686E-2,-6.6608034E-2,-1.4909653E-1,-4.7488284E-1,7.266638E-2,-2.2234434E-1,1.414226E-1,-9.392666E-2,4.8291367E-3,2.6557732E-1,-2.7243344E-2,5.1642194E-2,8.932497E-2,-2.672746E-2,2.3661204E-1,-4.029348E-2,5.4810084E-2,1.014446E-2,-9.2010126E-2,-3.1692315E-2,-5.7868537E-2,-2.8917396E-1,2.882142E-1,-4.775721E-2,7.896622E-2,-2.6036846E-2,-4.903305E-2,1.3508654E-1],"categories":[],"categories_nodes":[],"categories_segments":[],"categories_sizes":[],"default_left":[0,0,0,0,0,0,0,0,0,0,0,0,0,0,0,0,0,0,0,0,0,0,0,0,0,0,0,0,0,0,0,0,0,0,0,0,0,0,0,0,0,0,0,0,0,0,0,0,0,0,0,0,0,0,0,0,0,0,0,0,0,0,0,0,0,0,0,0,0,0,0,0,0,0,0,0,0,0,0,0,0,0,0,0,0,0,0,0,0,0,0,0,0,0,0,0,0],"id":10,"left_children":[1,3,5,7,9,11,13,15,17,19,21,23,25,27,29,31,33,-1,35,37,39,-1,41,43,45,47,49,51,53,55,57,59,61,63,65,67,-1,69,71,73,75,-1,-1,77,79,-1,81,83,-1,85,87,89,91,-1,93,-1,-1,-1,95,-1,-1,-1,-1,-1,-1,-1,-1,-1,-1,-1,-1,-1,-1,-1,-1,-1,-1,-1,-1,-1,-1,-1,-1,-1,-1,-1,-1,-1,-1,-1,-1,-1,-1,-1,-1,-1,-1],"loss_changes":[8.3431425E0,1.1718064E1,2.8916574E0,3.1758722E1,1.0933359E1,6.0199504E0,2.0015345E0,1.2122988E1,5.1848057E1,3.587699E0,6.0508895E-1,2.7275605E0,4.306541E0,1.674151E0,2.0776627E0,1.9825E1,4.5534897E1,0E0,4.7545214E0,4.669627E0,1.8418827E0,0E0,1.11293316E-1,3.3942075E0,1.8716042E0,2.0979887E1,4.0160722E-1,1.4678011E0,3.8097615E0,9.9558234E-2,9.086678E-1,1.5527452E1,1.7282516E1,5.3238697E1,1.7612198E1,4.8855414E0,0E0,1.7062205E-1,7.5164413E-1,1.2481775E0,1.4770466E0,0E0,0E0,1.1060985E1,2.3179379E0,0E0,1.5922539E0,3.147002E0,0E0,1.918666E-2,1.25596225E-2,4.15696E0,2.4559753E0,0E0,6.286504E-1,0E0,0E0,0E0,5.403163E-1,0E0,0E0,0E0,0E0,0E0,0E0,0E0,0E0,0E0,0E0,0E0,0E0,0E0,0E0,0E0,0E0,0E0,0E0,0E0,0E0,0E0,0E0,0E0,0E0,0E0,0E0,0E0,0E0,0E0,0E0,0E0,0E0,0E0,0E0,0E0,0E0,0E0,0E0],"parents":[2147483647,0,0,1,1,2,2,3,3,4,4,5,5,6,6,7,7,8,8,9,9,10,10,11,11,12,12,13,13,14,14,15,15,16,16,18,18,19,19,20,20,22,22,23,23,24,24,25,25,26,26,27,27,28,28,29,29,30,30,31,31,32,32,33,33,34,34,35,35,37,37,38,38,39,39,40,40,43,43,44,44,46,46,47,47,49,49,50,50,51,51,52,52,54,54,58,58],"right_children":[2,4,6,8,10,12,14,16,18,20,22,24,26,28,30,32,34,-1,36,38,40,-1,42,44,46,48,50,52,54,56,58,60,62,64,66,68,-1,70,72,74,76,-1,-1,78,80,-1,82,84,-1,86,88,90,92,-1,94,-1,-1,-1,96,-1,-1,-1,-1,-1,-1,-1,-1,-1,-1,-1,-1,-1,-1,-1,-1,-1,-1,-1,-1,-1,-1,-1,-1,-1,-1,-1,-1,-1,-1,-1,-1,-1,-1,-1,-1,-1,-1],"split_conditions":[2.0203426E2,1.05E1,1.0000001E0,9.2E0,1.5481083E1,9.0000004E-1,1.37E1,1.3640907E2,9.300001E0,1.4399999E1,1.6470667E1,1.6363178E1,2.5987167E2,1.5481083E1,8.347749E0,1.2606051E2,1.374943E2,1.6073918E0,3.0978832E1,5.623334E-1,7.9685836E0,6.661735E-2,1.95665E1,2.4433014E2,2.0278473E2,2.3554594E2,1.3450708E1,1.5575981E1,1.5526916E1,-3.0772502E0,1.5500001E1,1.2E0,1.5012332E1,5.2852497E0,2.8415E0,1.5192682E1,4.6323943E-1,-5.564168E-1,1.0999999E1,1.4500002E1,1.3153998E1,3.6009067E-1,8.790336E-2,1.5484185E1,2E-1,-2.6176804E-1,2.0619711E2,2.249999E2,9.479868E-1,1.1681987E1,8.954E0,1.5124284E1,1.5629971E1,4.1277012E-1,1.1770403E1,-9.482932E-3,-1.2935966E-1,2.7083173E-1,2.1E1,-3.7610058E-2,1.1199171E-1,-4.2613944E-1,3.819027E-1,-9.258332E-2,1.5503831E0,2.1186137E-1,1.8311992E-2,4.2271444E-1,-1.0900364E-1,4.6521686E-2,-6.6608034E-2,-1.4909653E-1,-4.7488284E-1,7.266638E-2,-2.2234434E-1,1.414226E-1,-9.392666E-2,4.8291367E-3,2.6557732E-1,-2.7243344E-2,5.1642194E-2,8.932497E-2,-2.672746E-2,2.3661204E-1,-4.029348E-2,5.4810084E-2,1.014446E-2,-9.2010126E-2,-3.1692315E-2,-5.7868537E-2,-2.8917396E-1,2.882142E-1,-4.775721E-2,7.896622E-2,-2.6036846E-2,-4.903305E-2,1.3508654E-1],"split_indices":[3,1,1,1,0,1,1,3,1,1,0,2,3,0,0,3,3,0,2,0,0,0,0,3,3,3,2,2,0,0,1,1,0,0,0,2,0,0,1,1,0,0,0,2,1,0,3,3,0,2,0,2,2,0,2,0,0,0,1,0,0,0,0,0,0,0,0,0,0,0,0,0,0,0,0,0,0,0,0,0,0,0,0,0,0,0,0,0,0,0,0,0,0,0,0,0,0],"split_type":[0,0,0,0,0,0,0,0,0,0,0,0,0,0,0,0,0,0,0,0,0,0,0,0,0,0,0,0,0,0,0,0,0,0,0,0,0,0,0,0,0,0,0,0,0,0,0,0,0,0,0,0,0,0,0,0,0,0,0,0,0,0,0,0,0,0,0,0,0,0,0,0,0,0,0,0,0,0,0,0,0,0,0,0,0,0,0,0,0,0,0,0,0,0,0,0,0],"sum_hessian":[1.542E3,6.2E2,9.22E2,5.85E2,3.5E1,6.69E2,2.53E2,5.74E2,1.1E1,3E1,5E0,6.44E2,2.5E1,2.43E2,1E1,3.05E2,2.69E2,2E0,9E0,1.2E1,1.8E1,2E0,3E0,2.65E2,3.79E2,1.6E1,9E0,2.02E2,4.1E1,3E0,7E0,2.88E2,1.7E1,6E0,2.63E2,7E0,2E0,3E0,9E0,1E1,8E0,2E0,1E0,8.2E1,1.83E2,2E0,3.77E2,1.4E1,2E0,4E0,5E0,4.3E1,1.59E2,1E0,4E1,1E0,2E0,3E0,4E0,1.98E2,9E1,1.5E1,2E0,3E0,3E0,5.2E1,2.11E2,1E0,6E0,2E0,1E0,2E0,7E0,1E0,9E0,3E0,5E0,6.4E1,1.8E1,1.4E2,4.3E1,1E1,3.67E2,5E0,9E0,2E0,2E0,3E0,2E0,3.5E1,8E0,1E0,1.58E2,5E0,3.5E1,2E0,2E0],"tree_param":{"num_deleted":"0","num_feature":"4","num_nodes":"97","size_leaf_vector":"1"}},{"base_weights":[1.385411E-2,4.2365817E-3,3.8463682E-1,2.6204422E-2,-1.4979453E-1,2.4068108E-1,2.0318785E0,1.5825182E-2,7.3498374E-1,-2.8865957E-1,-3.485874E-2,9.413947E-2,6.861284E-1,7.8088933E-1,1.3345599E-1,9.943006E-2,-2.6625294E-2,3.7001508E-1,2.558145E0,5.7412528E-2,-3.8249108E-1,-1.7415334E-1,1.8342695E-1,3.5126647E-1,1.3866723E-2,8.261213E-1,-6.5072216E-2,2.3381488E-2,6.1777246E-1,-2.2890107E-1,1.3194355E-2,9.0261394E-1,7.288107E-2,1.2487631E0,-9.7597726E-2,-4.2509604E-1,1.9730936E0,-1.0150722E0,-2.2601752E-1,1.6125587E-1,-2.1163112E-1,5.827513E-1,-2.2786176E-2,-4.281483E-2,2.316403E-1,4.2030478E-1,3.3805847E-1,7.8851305E-2,-1.9692866E-2,2.6470086E-1,-7.1682885E-2,1.93583E-2,-1.4537095E-1,-8.688107E-2,1.7196445E-2,5.1196826E-1,2.220009E-2,-1.1892435E-2,9.2350945E-2,-1.6885653E-1,2.4619347E-1,1.8322356E-1,6.6708845E-1,-3.898525E-1,-9.0021856E-2,4.786928E-3,-1.2013049E-1,9.266417E-2,-8.004829E-3,4.3170657E-2,-6.8069525E-2,5.056233E-2,4.7284245E-1,6.645077E-2,-3.4429047E-2,2.5010597E-2,-9.133349E-2,2.6175857E-1,-2.0828857E-1],"categories":[],"categories_nodes":[],"categories_segments":[],"categories_sizes":[],"default_left":[0,0,0,0,0,0,0,0,0,0,0,0,0,0,0,0,0,0,0,0,0,0,0,0,0,0,0,0,0,0,0,0,0,0,0,0,0,0,0,0,0,0,0,0,0,0,0,0,0,0,0,0,0,0,0,0,0,0,0,0,0,0,0,0,0,0,0,0,0,0,0,0,0,0,0,0,0,0,0],"id":11,"left_children":[1,3,5,7,9,11,13,15,17,19,21,23,25,-1,-1,27,29,31,33,35,37,39,41,-1,43,45,-1,47,49,51,53,55,57,-1,-1,59,61,63,65,67,69,71,73,75,-1,77,-1,-1,-1,-1,-1,-1,-1,-1,-1,-1,-1,-1,-1,-1,-1,-1,-1,-1,-1,-1,-1,-1,-1,-1,-1,-1,-1,-1,-1,-1,-1,-1,-1],"loss_changes":[5.5007286E0,5.0964403E0,8.75903E0,9.684356E0,2.9905233E0,2.350641E0,1.5610456E0,4.616434E0,1.1695987E1,2.7821193E0,3.19417E0,2.4903374E0,1.3169589E0,0E0,0E0,1.7251163E1,6.9540977E0,2.6245213E0,1.5232889E1,1.8401072E1,6.402384E0,8.38632E-1,3.389461E0,0E0,1.2364928E0,5.02738E-1,0E0,8.181832E0,1.2903555E1,1.0684189E1,9.663676E0,3.8706818E0,3.2945636E-1,0E0,0E0,3.2076976E0,7.1907043E-3,2.2538834E0,2.3276353E0,2.0245244E-1,3.4747696E-1,5.494969E0,6.54553E-1,9.16743E-1,0E0,3.126035E0,0E0,0E0,0E0,0E0,0E0,0E0,0E0,0E0,0E0,0E0,0E0,0E0,0E0,0E0,0E0,0E0,0E0,0E0,0E0,0E0,0E0,0E0,0E0,0E0,0E0,0E0,0E0,0E0,0E0,0E0,0E0,0E0,0E0],"parents":[2147483647,0,0,1,1,2,2,3,3,4,4,5,5,6,6,7,7,8,8,9,9,10,10,11,11,12,12,15,15,16,16,17,17,18,18,19,19,20,20,21,21,22,22,24,24,25,25,27,27,28,28,29,29,30,30,31,31,32,32,35,35,36,36,37,37,38,38,39,39,40,40,41,41,42,42,43,43,45,45],"right_children":[2,4,6,8,10,12,14,16,18,20,22,24,26,-1,-1,28,30,32,34,36,38,40,42,-1,44,46,-1,48,50,52,54,56,58,-1,-1,60,62,64,66,68,70,72,74,76,-1,78,-1,-1,-1,-1,-1,-1,-1,-1,-1,-1,-1,-1,-1,-1,-1,-1,-1,-1,-1,-1,-1,-1,-1,-1,-1,-1,-1,-1,-1,-1,-1,-1,-1],"split_conditions":[2.0881086E1,2.436325E1,5.0999994E0,2.3936617E1,2.413944E2,2.2774834E1,2.1056084E1,2.983167E0,4.4E0,1.5577228E2,5.09775E0,7.95742E1,2.0901848E2,7.8088933E-1,1.3345599E-1,2.2102497E0,1.2682018E1,2.4066206E1,1.3722749E1,1.2859091E2,1.8435687E2,-3.0772502E0,7.3581676E0,3.5126647E-1,2.238378E1,1.4618837E1,-6.5072216E-2,1.3281023E1,2.5660745E2,1.1090103E1,4.6060834E0,6.156084E0,1.4E0,1.2487631E0,-9.7597726E-2,1.4412334E1,2.7169865E1,2.9237675E1,4.149833E0,3.242907E2,2.4490587E1,6.6873345E0,2.510271E2,1.7072504E1,2.316403E-1,1.4471821E1,3.3805847E-1,7.8851305E-2,-1.9692866E-2,2.6470086E-1,-7.1682885E-2,1.93583E-2,-1.4537095E-1,-8.688107E-2,1.7196445E-2,5.1196826E-1,2.220009E-2,-1.1892435E-2,9.2350945E-2,-1.6885653E-1,2.4619347E-1,1.8322356E-1,6.6708845E-1,-3.898525E-1,-9.0021856E-2,4.786928E-3,-1.2013049E-1,9.266417E-2,-8.004829E-3,4.3170657E-2,-6.8069525E-2,5.056233E-2,4.7284245E-1,6.645077E-2,-3.4429047E-2,2.5010597E-2,-9.133349E-2,2.6175857E-1,-2.0828857E-1],"split_indices":[0,2,1,2,3,0,0,0,1,3,0,3,3,0,0,0,2,2,0,3,3,0,0,0,2,2,0,2,3,2,0,0,1,0,0,0,2,2,0,3,2,0,3,2,0,2,0,0,0,0,0,0,0,0,0,0,0,0,0,0,0,0,0,0,0,0,0,0,0,0,0,0,0,0,0,0,0,0,0],"split_type":[0,0,0,0,0,0,0,0,0,0,0,0,0,0,0,0,0,0,0,0,0,0,0,0,0,0,0,0,0,0,0,0,0,0,0,0,0,0,0,0,0,0,0,0,0,0,0,0,0,0,0,0,0,0,0,0,0,0,0,0,0,0,0,0,0,0,0,0,0,0,0,0,0,0,0,0,0,0,0],"sum_hessian":[1.542E3,1.504E3,3.8E1,1.317E3,1.87E2,3.6E1,2E0,1.299E3,1.8E1,8.4E1,1.03E2,2.8E1,8E0,1E0,1E0,4.37E2,8.62E2,1.6E1,2E0,1.8E1,6.6E1,6.3E1,4E1,1E0,2.7E1,7E0,1E0,3.82E2,5.5E1,1.41E2,7.21E2,5E0,1.1E1,1E0,1E0,1.5E1,3E0,1.2E1,5.4E1,6E0,5.7E1,1.3E1,2.7E1,2.6E1,1E0,4E0,3E0,1.03E2,2.79E2,4.2E1,1.3E1,6.6E1,7.5E1,9.1E1,6.3E2,2E0,3E0,8E0,3E0,1.4E1,1E0,1E0,2E0,8E0,4E0,2.3E1,3.1E1,3E0,3E0,2E0,5.5E1,1E1,3E0,7E0,2E1,1.8E1,8E0,3E0,1E0],"tree_param":{"num_deleted":"0","num_feature":"4","num_nodes":"79","size_leaf_vector":"1"}},{"base_weights":[1.2631958E-2,3.4673596E-3,2.806734E-1,2.7126882E-2,-1.23302035E-1,1.2481404E-1,1.6896167E0,4.3413393E-2,-3.371075E-1,1.4851435E-1,-2.3951817E-1,-1.1764584E-2,4.1696608E-1,6.561737E-1,1.886347E-1,3.0223904E-2,1.7942572E0,-5.129051E-1,-1.1266613E-1,-3.6765993E-1,5.136742E-1,3.6511678E-1,-2.6485685E-1,-8.008214E-2,5.035582E-1,5.711923E-1,-1.1710089E-1,1.3188997E-1,-3.0248107E-2,1.2824742E0,4.747962E-1,-7.3977715E-1,-2.0078151E-1,-3.4113508E-1,3.314048E-1,-4.734359E-1,4.3824297E-1,1.8465291E0,3.638E-1,-3.1483188E-1,4.5432836E-1,-3.0226165E-1,1.6224813E-1,4.407177E-2,1.7204212E-1,-1.1114041E-1,7.053565E-1,-8.522314E-2,6.218164E-2,-5.3914867E-2,-7.275892E-4,-1.23117276E-1,2.0721777E-1,-4.482731E-2,-3.4142452E-1,4.3932036E-3,-1.2548971E-1,-1.9110821E-1,-3.6548324E-2,-7.7230185E-2,2.0061897E-1,-1.9335288E-1,-8.056362E-2,2.54384E-1,-1.18630245E-1,7.149844E-1,3.544096E-2,2.3498316E-1,4.4506628E-2,-2.0827088E-1,-4.357058E-2,-7.3513865E-2,2.2416738E-1,6.566787E-2,-1.1770425E-1,1.2080425E-1,-7.9654306E-2,-7.722352E-2,2.7210332E-2,9.054203E-2,2.6785234E-1],"categories":[],"categories_nodes":[],"categories_segments":[],"categories_sizes":[],"default_left":[0,0,0,0,0,0,0,0,0,0,0,0,0,0,0,0,0,0,0,0,0,0,0,0,0,0,0,0,0,0,0,0,0,0,0,0,0,0,0,0,0,0,0,0,0,0,0,0,0,0,0,0,0,0,0,0,0,0,0,0,0,0,0,0,0,0,0,0,0,0,0,0,0,0,0,0,0,0,0,0,0],"id":12,"left_children":[1,3,5,7,9,11,13,15,17,19,21,23,25,-1,-1,27,29,31,33,35,37,-1,39,41,43,45,-1,47,49,-1,51,53,55,57,59,61,63,65,67,69,71,73,75,-1,-1,77,79,-1,-1,-1,-1,-1,-1,-1,-1,-1,-1,-1,-1,-1,-1,-1,-1,-1,-1,-1,-1,-1,-1,-1,-1,-1,-1,-1,-1,-1,-1,-1,-1,-1,-1],"loss_changes":[3.7893941E0,4.481305E0,1.0988559E1,7.483158E0,7.459092E0,1.8802865E0,1.2642088E0,2.7795609E1,2.0728507E0,1.3571372E1,6.4121103E0,1.2021106E0,2.0905652E0,0E0,0E0,7.3692355E0,2.742845E1,1.975831E0,2.6494644E0,2.7648354E0,7.718177E0,0E0,6.0014687E0,1.6642659E0,1.54953E-2,1.2684731E0,0E0,1.4075235E1,3.1268485E0,0E0,1.6214347E0,3.8273258E0,6.62149E-1,1.0255454E0,1.9598238E0,7.7330637E-1,1.7015495E0,3.4293194E0,3.4083858E0,9.7440605E0,2.4363906E0,8.370606E-1,1.6496388E0,0E0,0E0,1.119184E-1,5.6278706E-1,0E0,0E0,0E0,0E0,0E0,0E0,0E0,0E0,0E0,0E0,0E0,0E0,0E0,0E0,0E0,0E0,0E0,0E0,0E0,0E0,0E0,0E0,0E0,0E0,0E0,0E0,0E0,0E0,0E0,0E0,0E0,0E0,0E0,0E0],"parents":[2147483647,0,0,1,1,2,2,3,3,4,4,5,5,6,6,7,7,8,8,9,9,10,10,11,11,12,12,15,15,16,16,17,17,18,18,19,19,20,20,22,22,23,23,24,24,25,25,27,27,28,28,30,30,31,31,32,32,33,33,34,34,35,35,36,36,37,37,38,38,39,39,40,40,41,41,42,42,45,45,46,46],"right_children":[2,4,6,8,10,12,14,16,18,20,22,24,26,-1,-1,28,30,32,34,36,38,-1,40,42,44,46,-1,48,50,-1,52,54,56,58,60,62,64,66,68,70,72,74,76,-1,-1,78,80,-1,-1,-1,-1,-1,-1,-1,-1,-1,-1,-1,-1,-1,-1,-1,-1,-1,-1,-1,-1,-1,-1,-1,-1,-1,-1,-1,-1,-1,-1,-1,-1,-1,-1],"split_conditions":[2.0549833E1,1.5578999E1,5.0999994E0,9.8E0,1.3779114E1,2.2337334E1,7.7999997E0,9.2E0,1.8347433E2,1.6876558E2,1.5374269E1,2.0592503E1,2.0901848E2,6.561737E-1,1.886347E-1,2.0203426E2,9.300001E0,1.5599999E1,1.3399999E1,1.5000002E0,1.8149202E2,3.6511678E-1,7.5E0,3E-1,2.0714417E1,1.07251854E2,-1.1710089E-1,-1.1210002E0,2.2443501E2,1.2824742E0,-5.564168E-1,2.6373334E0,1.88E1,2.3059314E2,8.347749E0,1.8020666E1,1.7364416E1,1.9645664E1,1E-1,1.9543051E2,1.594775E1,1.2287555E1,1.57908325E1,4.407177E-2,1.7204212E-1,2.2774834E1,1.4618837E1,-8.522314E-2,6.218164E-2,-5.3914867E-2,-7.275892E-4,-1.23117276E-1,2.0721777E-1,-4.482731E-2,-3.4142452E-1,4.3932036E-3,-1.2548971E-1,-1.9110821E-1,-3.6548324E-2,-7.7230185E-2,2.0061897E-1,-1.9335288E-1,-8.056362E-2,2.54384E-1,-1.18630245E-1,7.149844E-1,3.544096E-2,2.3498316E-1,4.4506628E-2,-2.0827088E-1,-4.357058E-2,-7.3513865E-2,2.2416738E-1,6.566787E-2,-1.1770425E-1,1.2080425E-1,-7.9654306E-2,-7.722352E-2,2.7210332E-2,9.054203E-2,2.6785234E-1],"split_indices":[0,0,1,1,2,0,1,1,3,3,3,2,3,0,0,3,1,1,1,1,3,0,1,1,0,3,0,0,3,0,0,0,1,3,0,0,0,0,1,3,0,2,2,0,0,0,2,0,0,0,0,0,0,0,0,0,0,0,0,0,0,0,0,0,0,0,0,0,0,0,0,0,0,0,0,0,0,0,0,0,0],"split_type":[0,0,0,0,0,0,0,0,0,0,0,0,0,0,0,0,0,0,0,0,0,0,0,0,0,0,0,0,0,0,0,0,0,0,0,0,0,0,0,0,0,0,0,0,0,0,0,0,0,0,0,0,0,0,0,0,0,0,0,0,0,0,0,0,0,0,0,0,0,0,0,0,0,0,0,0,0,0,0,0,0],"sum_hessian":[1.542E3,1.492E3,5E1,1.258E3,2.34E2,4.6E1,4E0,1.205E3,5.3E1,7E1,1.64E2,3.2E1,1.4E1,2E0,2E0,1.197E3,8E0,2.9E1,2.4E1,2.9E1,4.1E1,2E0,1.62E2,2.9E1,3E0,1.2E1,2E0,4.46E2,7.51E2,2E0,6E0,1.6E1,1.3E1,1.6E1,8E0,2.6E1,3E0,3E0,3.8E1,1.52E2,1E1,1.5E1,1.4E1,1E0,2E0,2E0,1E1,6.8E1,3.78E2,1.17E2,6.34E2,1E0,5E0,7E0,9E0,7E0,6E0,6E0,1E1,3E0,5E0,1.3E1,1.3E1,2E0,1E0,2E0,1E0,1.2E1,2.6E1,4.6E1,1.06E2,3E0,7E0,2E0,1.3E1,9E0,5E0,1E0,1E0,4E0,6E0],"tree_param":{"num_deleted":"0","num_feature":"4","num_nodes":"81","size_leaf_vector":"1"}},{"base_weights":[1.0834762E-2,-1.4213683E-1,2.3951286E-2,3.428339E-2,-3.0789995E-1,1.0821726E-1,-1.923697E-2,1.1369969E-1,-5.832543E-1,-2.2878638E-1,-2.2789283E-1,6.8349585E-2,8.342644E-1,-6.379837E-1,-1.4584068E-2,1.2552184E-4,5.111988E-1,-4.262252E-2,-1.899315E-1,2.0626932E-1,-3.061815E-1,-1.8718058E-1,2.2997244E-1,3.1507201E0,9.761451E-2,1.7676938E-2,-7.6395535E-1,5.449852E-1,-1.8784715E-2,3.8629982E-1,-1.2860304E-1,1.0674074E0,-3.857978E-2,7.243815E-1,-4.5245808E-2,-3.7429607E-1,1.3651553E-1,-5.0516516E-2,-6.2850904E-1,1.2185816E0,1.8794422E-1,7.2116494E-1,1.601966E0,-1.8214707E0,5.434219E-1,-2.6258957E-1,-3.1085946E-2,7.2731906E-1,-1.7231624E-1,3.0462E-1,-2.3349028E-2,9.40919E-4,2.536406E-1,-6.9702946E-2,2.0447958E-1,-8.7761365E-2,4.1937122E-1,1.01666726E-1,-1.219211E-1,2.5828922E-1,6.7682475E-2,-7.751535E-2,2.750597E-2,-6.034146E-2,-1.3425219E-1,2.9209343E-1,-1.17919534E-1,-4.2926773E-2,3.0686104E-1,-3.9622122E-1,-8.179716E-2,1.294778E-1,-2.0324033E-2,5.050547E-1,-4.8237134E-2,-6.259051E-1,-1.5402485E-1,3.4006983E-1,-7.865577E-2,-2.1018101E-1,2.203856E-2,2.0072345E-1,-2.0403431E-3,-8.0617955E-3,1.1411442E-1],"categories":[],"categories_nodes":[],"categories_segments":[],"categories_sizes":[],"default_left":[0,0,0,0,0,0,0,0,0,0,0,0,0,0,0,0,0,0,0,0,0,0,0,0,0,0,0,0,0,0,0,0,0,0,0,0,0,0,0,0,0,0,0,0,0,0,0,0,0,0,0,0,0,0,0,0,0,0,0,0,0,0,0,0,0,0,0,0,0,0,0,0,0,0,0,0,0,0,0,0,0,0,0,0,0],"id":13,"left_children":[1,3,5,7,9,11,13,15,17,-1,19,21,23,25,27,29,31,-1,-1,33,35,37,39,41,43,-1,45,47,49,51,53,55,57,59,61,63,65,67,69,-1,71,73,-1,75,77,-1,-1,-1,79,81,83,-1,-1,-1,-1,-1,-1,-1,-1,-1,-1,-1,-1,-1,-1,-1,-1,-1,-1,-1,-1,-1,-1,-1,-1,-1,-1,-1,-1,-1,-1,-1,-1,-1,-1],"loss_changes":[3.0993657E0,3.5783195E0,5.1771674E0,3.0088692E0,2.1182036E0,1.389486E1,2.699805E0,2.4378002E0,6.400347E-2,0E0,1.9326038E0,1.8958223E1,4.2352867E1,6.595483E-1,2.2080038E0,2.1872807E0,3.710679E0,0E0,0E0,1.2055929E0,1.4683409E0,1.0704098E1,4.4491817E1,2.8061268E1,1.8100676E1,0E0,3.5044456E-1,9.854495E0,1.3784288E0,1.932652E0,2.932028E0,3.1056833E0,1.1096202E0,1.0130525E-2,2.2798946E-1,4.2974997E-1,3.4859977E0,1.3759548E1,9.985781E0,0E0,1.7410576E1,3.6656947E0,0E0,3.1474113E-1,8.379425E0,0E0,0E0,0E0,8.305161E-1,1.4800504E0,1.3147392E0,0E0,0E0,0E0,0E0,0E0,0E0,0E0,0E0,0E0,0E0,0E0,0E0,0E0,0E0,0E0,0E0,0E0,0E0,0E0,0E0,0E0,0E0,0E0,0E0,0E0,0E0,0E0,0E0,0E0,0E0,0E0,0E0,0E0,0E0],"parents":[2147483647,0,0,1,1,2,2,3,3,4,4,5,5,6,6,7,7,8,8,10,10,11,11,12,12,13,13,14,14,15,15,16,16,19,19,20,20,21,21,22,22,23,23,24,24,26,26,27,27,28,28,29,29,30,30,31,31,32,32,33,33,34,34,35,35,36,36,37,37,38,38,40,40,41,41,43,43,44,44,48,48,49,49,50,50],"right_children":[2,4,6,8,10,12,14,16,18,-1,20,22,24,26,28,30,32,-1,-1,34,36,38,40,42,44,-1,46,48,50,52,54,56,58,60,62,64,66,68,70,-1,72,74,-1,76,78,-1,-1,-1,80,82,84,-1,-1,-1,-1,-1,-1,-1,-1,-1,-1,-1,-1,-1,-1,-1,-1,-1,-1,-1,-1,-1,-1,-1,-1,-1,-1,-1,-1,-1,-1,-1,-1,-1,-1],"split_conditions":[4.4470886E1,1.4658676E1,1.9885135E2,4.191873E1,1.5827721E1,1.9441222E2,1.9960413E2,3.450859E1,7.42159E0,-2.2878638E-1,-2.9835002E0,1.5021105E1,1.3910169E1,3.6165001E0,2.0122923E2,1.0365251E1,1.4706668E0,-4.262252E-2,-1.899315E-1,7.4207864E0,1.5526916E1,1.3896187E1,1.5124284E1,1E-1,1.4345898E1,1.7676938E-2,1.8764418E1,1.4118243E1,-9.110583E0,1.0086427E1,1.4118243E1,-3.36475E0,1E-1,-4.0522504E0,9.666948E0,5.623334E-1,1.5374269E1,1.35515E1,5.5269165E0,1.2185816E0,2.1E0,1.1090103E1,1.601966E0,1.4301915E1,1.678156E1,-2.6258957E-1,-3.1085946E-2,7.2731906E-1,1.4773164E1,1.3281023E1,2.1389418E1,9.40919E-4,2.536406E-1,-6.9702946E-2,2.0447958E-1,-8.7761365E-2,4.1937122E-1,1.01666726E-1,-1.219211E-1,2.5828922E-1,6.7682475E-2,-7.751535E-2,2.750597E-2,-6.034146E-2,-1.3425219E-1,2.9209343E-1,-1.17919534E-1,-4.2926773E-2,3.0686104E-1,-3.9622122E-1,-8.179716E-2,1.294778E-1,-2.0324033E-2,5.050547E-1,-4.8237134E-2,-6.259051E-1,-1.5402485E-1,3.4006983E-1,-7.865577E-2,-2.1018101E-1,2.203856E-2,2.0072345E-1,-2.0403431E-3,-8.0617955E-3,1.1411442E-1],"split_indices":[3,2,3,3,2,3,3,3,2,0,0,2,2,0,3,2,0,0,0,3,0,2,2,1,2,0,0,2,0,2,2,0,1,0,3,0,3,2,0,0,1,2,0,0,2,0,0,0,2,2,0,0,0,0,0,0,0,0,0,0,0,0,0,0,0,0,0,0,0,0,0,0,0,0,0,0,0,0,0,0,0,0,0,0,0],"split_type":[0,0,0,0,0,0,0,0,0,0,0,0,0,0,0,0,0,0,0,0,0,0,0,0,0,0,0,0,0,0,0,0,0,0,0,0,0,0,0,0,0,0,0,0,0,0,0,0,0,0,0,0,0,0,0,0,0,0,0,0,0,0,0,0,0,0,0,0,0,0,0,0,0,0,0,0,0,0,0,0,0,0,0,0,0],"sum_hessian":[1.542E3,1.21E2,1.421E3,5.9E1,6.2E1,4.81E2,9.4E2,5.3E1,6E0,8E0,5.4E1,4.57E2,2.4E1,6E0,9.34E2,4.2E1,1.1E1,1E0,5E0,8E0,4.6E1,1.77E2,2.8E2,5E0,1.9E1,1E0,5E0,6E0,9.28E2,1E1,3.2E1,5E0,6E0,2E0,6E0,4E1,6E0,1.36E2,4.1E1,2E0,2.78E2,3E0,2E0,3E0,1.6E1,4E0,1E0,1E0,5E0,1.2E1,9.16E2,6E0,4E0,2.9E1,3E0,1E0,4E0,3E0,3E0,1E0,1E0,2E0,4E0,1.3E1,2.7E1,2E0,4E0,1.26E2,1E1,1.3E1,2.8E1,1.42E2,1.36E2,1E0,2E0,2E0,1E0,9E0,7E0,1E0,4E0,5E0,7E0,9.09E2,7E0],"tree_param":{"num_deleted":"0","num_feature":"4","num_nodes":"85","size_leaf_vector":"1"}},{"base_weights":[9.993121E-3,4.2734334E-1,6.167698E-3,9.593255E-1,-2.4168529E-1,-5.7773876E-1,8.845637E-3,1.9815048E-2,7.5557137E-1,-2.5989813E-1,6.8095126E-3,-2.3104171E-1,-6.449207E-2,1.5033937E-2,-2.2717129E-1,6.41978E-2,-7.3708035E-2,7.183013E-2,-5.0808318E-2,7.2645666E-3,-3.6285996E-2,3.699544E-4,1.1098065E-1,-3.3879614E-1,3.315133E-1,1.927438E-2,-4.2447078E-1,3.4338439E0,5.929055E-2,-2.7821767E-1,-2.0056856E-1,-8.598668E-2,6.3609195E-1,2.0004483E-2,-2.0922508E-2,-1.6510355E-1,3.954042E-1,1.3797044E0,1.6552545E-1,-3.4255654E-2,1.3833088E-1,1.8363444E-2,-7.4024715E-2,2.6338616E-1,-4.970333E-2],"categories":[],"categories_nodes":[],"categories_segments":[],"categories_sizes":[],"default_left":[0,0,0,0,0,0,0,0,0,0,0,0,0,0,0,0,0,0,0,0,0,0,0,0,0,0,0,0,0,0,0,0,0,0,0,0,0,0,0,0,0,0,0,0,0],"id":14,"left_children":[1,3,5,7,9,11,13,15,-1,-1,17,-1,19,21,23,-1,-1,-1,-1,-1,-1,25,27,29,31,33,35,37,39,-1,41,-1,43,-1,-1,-1,-1,-1,-1,-1,-1,-1,-1,-1,-1],"loss_changes":[2.460827E0,5.214613E0,2.3975184E0,1.1669517E1,1.0924408E0,6.415739E-1,2.2292836E0,3.6191142E-1,0E0,0E0,2.8644004E-1,0E0,1.7954484E-2,2.090703E0,2.544476E0,0E0,0E0,0E0,0E0,0E0,0E0,1.0368649E1,3.3632957E1,2.4988816E0,1.5002146E0,5.2205772E0,1.2788744E1,7.536873E0,1.3645091E1,0E0,3.5359943E-1,0E0,1.1150448E0,0E0,0E0,0E0,0E0,0E0,0E0,0E0,0E0,0E0,0E0,0E0,0E0],"parents":[2147483647,0,0,1,1,2,2,3,3,4,4,5,5,6,6,7,7,10,10,12,12,13,13,14,14,21,21,22,22,23,23,24,24,25,25,26,26,27,27,28,28,30,30,32,32],"right_children":[2,4,6,8,10,12,14,16,-1,-1,18,-1,20,22,24,-1,-1,-1,-1,-1,-1,26,28,30,32,34,36,38,40,-1,42,-1,44,-1,-1,-1,-1,-1,-1,-1,-1,-1,-1,-1,-1],"split_conditions":[8.12197E0,1.6104108E2,8.557102E0,1.4046825E2,1.8347433E2,2E-1,3.05173E1,8E-1,7.5557137E-1,-2.5989813E-1,-8.495997E0,-2.3104171E-1,1.2040001E0,4.6E0,6.9000006E0,6.41978E-2,-7.3708035E-2,7.183013E-2,-5.0808318E-2,7.2645666E-3,-3.6285996E-2,3.5999997E0,4.6000004E0,1.9441222E2,3.1565245E1,1.1168583E1,2.8054604E1,-3.5224995E-1,1.3539417E1,-2.7821767E-1,1E-1,-8.598668E-2,9.6E0,2.0004483E-2,-2.0922508E-2,-1.6510355E-1,3.954042E-1,1.3797044E0,1.6552545E-1,-3.4255654E-2,1.3833088E-1,1.8363444E-2,-7.4024715E-2,2.6338616E-1,-4.970333E-2],"split_indices":[2,3,2,3,3,1,2,1,0,0,0,0,0,1,1,0,0,0,0,0,0,1,1,3,2,0,2,0,0,0,1,0,1,0,0,0,0,0,0,0,0,0,0,0,0],"split_type":[0,0,0,0,0,0,0,0,0,0,0,0,0,0,0,0,0,0,0,0,0,0,0,0,0,0,0,0,0,0,0,0,0,0,0,0,0,0,0,0,0,0,0,0,0],"sum_hessian":[1.542E3,1.3E1,1.529E3,7E0,6E0,6E0,1.523E3,5E0,2E0,1E0,5E0,4E0,2E0,1.485E3,3.8E1,3E0,2E0,2E0,3E0,1E0,1E0,1.289E3,1.96E2,3.2E1,6E0,1.235E3,5.4E1,2E0,1.94E2,5E0,2.7E1,2E0,4E0,8.06E2,4.29E2,5.1E1,3E0,1E0,1E0,1.36E2,5.8E1,4E0,2.3E1,3E0,1E0],"tree_param":{"num_deleted":"0","num_feature":"4","num_nodes":"45","size_leaf_vector":"1"}},{"base_weights":[8.239265E-3,2.7971005E-2,-5.4614484E-2,-1.6190365E-1,4.597775E-2,2.6766783E-1,-6.3415065E-2,-2.986879E-1,5.7579145E-2,1.6280049E-1,1.5519805E-2,6.574868E-1,6.6758734E-3,-1.1565357E-1,-1.9605268E-2,-4.5186445E-1,5.3234927E-2,-3.7972367E-1,1.6184711E-1,1.139959E-1,1.9007663E0,-1.304824E-1,5.4763313E-2,2.743347E-1,-1.7009927E-2,-2.0996153E-1,2.2164431E-1,2.9429463E-1,-1.3039593E-1,-2.1836755E-1,2.1721091E-2,-2.3302084E-1,-9.557976E-1,3.3067754E-1,-5.9990436E-2,-4.5293808E-1,1.9916583E-2,3.9190882E-1,-2.2224079E-1,6.5232253E-1,-2.6690193E-2,5.1584375E-1,9.341223E-1,-4.0955013E-1,1.6259378E-1,1.9139129E-1,-3.279854E-2,-8.437086E-3,-7.835989E-2,1.0081348E-1,-1.8233621E-2,-3.2652855E-2,6.321264E-1,-2.4104264E-1,-9.365529E-2,-4.5070493E-1,-1.0278094E-1,2.554589E-1,-8.845617E-3,-8.855587E-2,4.8512843E-2,-3.099686E-1,-1.0598536E-1,-1.09263666E-1,2.2402609E-2,-4.6398714E-2,-1.6239476E-1,7.857633E-2,3.253585E-1,1.416778E-1,-1.1743387E-1,4.632231E-2,7.138752E-1,3.5985753E-2,-1.3024777E-1,2.0709945E-1,-1.1429072E-3,4.7485434E-2,-2.0880619E-1,1.4009722E-2,1.3722488E-1,3.295166E-2,3.885925E-1,-2.511435E-1,4.453059E-3,1.677382E-2,-4.4752445E-2,2.810164E-1,3.4404874E-3,-3.434641E-2,-1.4560354E-1,3.4702208E-2,-4.087558E-2,-1.4459339E-1,-2.0696212E-2,3.9849993E-2,-5.1532775E-2,7.7352584E-3,1.2604532E-1,3.3485133E-2,-1.4785346E-2],"categories":[],"categories_nodes":[],"categories_segments":[],"categories_sizes":[],"default_left":[0,0,0,0,0,0,0,0,0,0,0,0,0,0,0,0,0,0,0,0,0,0,0,0,0,0,0,0,0,0,0,0,0,0,0,0,0,0,0,0,0,0,0,0,0,0,0,0,0,0,0,0,0,0,0,0,0,0,0,0,0,0,0,0,0,0,0,0,0,0,0,0,0,0,0,0,0,0,0,0,0,0,0,0,0,0,0,0,0,0,0,0,0,0,0,0,0,0,0,0,0],"id":15,"left_children":[1,3,5,7,9,11,13,15,17,19,21,23,25,27,29,31,33,35,37,39,41,43,45,-1,-1,47,49,51,53,55,57,59,61,-1,63,65,-1,67,69,71,73,75,-1,77,79,81,83,-1,-1,-1,-1,85,87,89,91,93,95,97,99,-1,-1,-1,-1,-1,-1,-1,-1,-1,-1,-1,-1,-1,-1,-1,-1,-1,-1,-1,-1,-1,-1,-1,-1,-1,-1,-1,-1,-1,-1,-1,-1,-1,-1,-1,-1,-1,-1,-1,-1,-1,-1],"loss_changes":[1.9151776E0,4.024798E0,1.0635583E0,3.0794206E0,3.8189595E0,1.0130069E0,8.2161355E-1,3.4201527E0,1.8853242E0,1.8613516E1,4.894528E0,7.8592443E-1,3.725282E-1,1.029526E0,1.622925E0,4.629712E0,2.4416463E0,2.913648E-1,3.0031075E0,1.6451921E1,8.473053E0,1.4870237E1,8.057645E0,0E0,0E0,2.9922247E-2,1.4966184E-1,6.8336016E-1,6.2379694E-1,8.6674917E-1,1.1739733E0,8.3296824E-1,2.4146748E-1,0E0,8.0559474E-1,1.008054E-1,0E0,1.606612E0,1.7125354E0,3.8333878E1,1.03892355E1,3.653226E-1,0E0,1.5238287E1,3.0196238E0,2.3534855E1,1.5762243E1,0E0,0E0,0E0,0E0,4.9620114E-2,5.564054E-1,1.1502204E0,1.0946844E0,9.80618E-2,4.1296628E-1,7.0785344E-1,7.1672195E-1,0E0,0E0,0E0,0E0,0E0,0E0,0E0,0E0,0E0,0E0,0E0,0E0,0E0,0E0,0E0,0E0,0E0,0E0,0E0,0E0,0E0,0E0,0E0,0E0,0E0,0E0,0E0,0E0,0E0,0E0,0E0,0E0,0E0,0E0,0E0,0E0,0E0,0E0,0E0,0E0,0E0,0E0],"parents":[2147483647,0,0,1,1,2,2,3,3,4,4,5,5,6,6,7,7,8,8,9,9,10,10,11,11,12,12,13,13,14,14,15,15,16,16,17,17,18,18,19,19,20,20,21,21,22,22,25,25,26,26,27,27,28,28,29,29,30,30,31,31,32,32,34,34,35,35,37,37,38,38,39,39,40,40,41,41,43,43,44,44,45,45,46,46,51,51,52,52,53,53,54,54,55,55,56,56,57,57,58,58],"right_children":[2,4,6,8,10,12,14,16,18,20,22,24,26,28,30,32,34,36,38,40,42,44,46,-1,-1,48,50,52,54,56,58,60,62,-1,64,66,-1,68,70,72,74,76,-1,78,80,82,84,-1,-1,-1,-1,86,88,90,92,94,96,98,100,-1,-1,-1,-1,-1,-1,-1,-1,-1,-1,-1,-1,-1,-1,-1,-1,-1,-1,-1,-1,-1,-1,-1,-1,-1,-1,-1,-1,-1,-1,-1,-1,-1,-1,-1,-1,-1,-1,-1,-1,-1,-1],"split_conditions":[2.764325E2,-1.1210002E0,-9.110583E0,1.7610588E1,2.8415E0,1.3281023E1,1E-1,2.300188E2,-5.231416E0,2.8206666E0,1.35515E1,1E-1,1.420062E1,8.891344E0,2.9177725E2,9.768213E1,2.3725418E2,2.2000003E0,-2.18975E0,1.3004922E1,2.5E0,1.4412334E1,1.901334E2,2.743347E-1,-1.7009927E-2,1.3450708E1,3.0697516E2,8.557102E0,1.4386494E1,1.5315873E1,2.988251E2,-1.3105835E0,2.1057391E2,3.3067754E-1,2.4752051E2,1E-1,1.9916583E-2,-2.5335E0,1.8328207E1,1.1966954E1,3.4999998E0,1.8000002E0,9.341223E-1,1.1090103E1,1.2682018E1,1.8347433E2,1.9441222E2,-8.437086E-3,-7.835989E-2,1.0081348E-1,-1.8233621E-2,7.42159E0,-3.175167E0,3.242907E2,2.8769757E2,2.8855267E2,1.7102499E0,2.951699E2,1.48257065E1,-8.855587E-2,4.8512843E-2,-3.099686E-1,-1.0598536E-1,-1.09263666E-1,2.2402609E-2,-4.6398714E-2,-1.6239476E-1,7.857633E-2,3.253585E-1,1.416778E-1,-1.1743387E-1,4.632231E-2,7.138752E-1,3.5985753E-2,-1.3024777E-1,2.0709945E-1,-1.1429072E-3,4.7485434E-2,-2.0880619E-1,1.4009722E-2,1.3722488E-1,3.295166E-2,3.885925E-1,-2.511435E-1,4.453059E-3,1.677382E-2,-4.4752445E-2,2.810164E-1,3.4404874E-3,-3.434641E-2,-1.4560354E-1,3.4702208E-2,-4.087558E-2,-1.4459339E-1,-2.0696212E-2,3.9849993E-2,-5.1532775E-2,7.7352584E-3,1.2604532E-1,3.3485133E-2,-1.4785346E-2],"split_indices":[3,0,0,2,0,2,1,3,0,0,2,1,2,2,3,3,3,1,0,2,1,0,3,0,0,2,3,2,2,2,3,0,3,0,3,1,0,0,2,2,1,1,0,2,2,3,3,0,0,0,0,2,0,3,3,3,0,3,2,0,0,0,0,0,0,0,0,0,0,0,0,0,0,0,0,0,0,0,0,0,0,0,0,0,0,0,0,0,0,0,0,0,0,0,0,0,0,0,0,0,0],"split_type":[0,0,0,0,0,0,0,0,0,0,0,0,0,0,0,0,0,0,0,0,0,0,0,0,0,0,0,0,0,0,0,0,0,0,0,0,0,0,0,0,0,0,0,0,0,0,0,0,0,0,0,0,0,0,0,0,0,0,0,0,0,0,0,0,0,0,0,0,0,0,0,0,0,0,0,0,0,0,0,0,0,0,0,0,0,0,0,0,0,0,0,0,0,0,0,0,0,0,0,0,0],"sum_hessian":[1.542E3,1.174E3,3.68E2,1.01E2,1.073E3,9E0,3.59E2,6.2E1,3.9E1,2.21E2,8.52E2,3E0,6E0,1.63E2,1.96E2,4.3E1,1.9E1,7E0,3.2E1,2.16E2,5E0,1.8E2,6.72E2,2E0,1E0,3E0,3E0,5E0,1.58E2,3.3E1,1.63E2,3.1E1,1.2E1,1E0,1.8E1,6E0,1E0,2E1,1.2E1,4.4E1,1.72E2,3E0,2E0,9.2E1,8.8E1,2.62E2,4.1E2,1E0,2E0,2E0,1E0,3E0,2E0,3.8E1,1.2E2,1E1,2.3E1,1.8E1,1.45E2,2.7E1,4E0,1E1,2E0,5E0,1.3E1,2E0,4E0,1.8E1,2E0,2E0,1E1,3.5E1,9E0,1.27E2,4.5E1,2E0,1E0,3.1E1,6.1E1,6.4E1,2.4E1,2.45E2,1.7E1,2.2E1,3.88E2,2E0,1E0,1E0,1E0,2.6E1,1.2E1,2E1,1E2,9E0,1E0,5E0,1.8E1,8E0,1E1,3.6E1,1.09E2],"tree_param":{"num_deleted":"0","num_feature":"4","num_nodes":"101","size_leaf_vector":"1"}},{"base_weights":[7.256071E-3,2.041384E-3,2.0830344E-1,1.954003E-2,-8.716038E-2,1.1416868E-1,1.2998643E0,9.086924E-3,2.774823E-1,-3.3497643E-1,-5.85589E-3,2.3262234E-1,7.426182E-2,5.4268616E-1,4.2252805E-2,2.0809375E-2,-2.3767601E-1,6.836478E-1,-5.1557828E-2,-6.57951E-1,-1.613803E-1,-5.8308147E-2,4.6100137E-1,-1.9080963E-2,3.564103E-1,6.435813E-3,8.3762455E-1,1.5567388E-1,-5.0462663E-1,1.072563E0,-3.0296516E-1,-4.1247398E-1,2.8873444E-1,2.1431181E-1,-8.7579584E-1,9.5399255E-1,-2.4304026E-1,-2.2195975E-1,1.2652877E-1,8.814493E-1,-5.546725E-3,-7.991244E-2,5.1448554E-1,1.477422E-1,7.2449905E-1,1.0889973E-2,-2.5692437E-2,-2.9804394E-1,3.657602E-1,3.4870148E-1,-8.039769E-2,-2.2003812E-1,9.064836E-2,4.736673E-2,7.7121145E-1,1.9438267E-1,-1.7083204E-1,2.1273988E-1,-1.6599002E-1,2.323841E-1,-9.4999615E-3,2.2695981E-1,-3.3112977E-2,-3.414125E-2,-3.0928528E-1,4.8891273E-1,-5.9616067E-2,-1.6180536E-1,-2.224216E-2,-9.981692E-2,-1.1519033E-2,1.9051106E-1,2.7124947E-3,3.4341654E-1,-3.432806E-2,6.1827917E-2,-3.7707403E-2,5.762688E-3,-9.1601014E-2,3.904231E-2,1.9247618E-1,-6.619861E-2,2.1375056E-1,2.6887667E-1,5.7147935E-2],"categories":[],"categories_nodes":[],"categories_segments":[],"categories_sizes":[],"default_left":[0,0,0,0,0,0,0,0,0,0,0,0,0,0,0,0,0,0,0,0,0,0,0,0,0,0,0,0,0,0,0,0,0,0,0,0,0,0,0,0,0,0,0,0,0,0,0,0,0,0,0,0,0,0,0,0,0,0,0,0,0,0,0,0,0,0,0,0,0,0,0,0,0,0,0,0,0,0,0,0,0,0,0,0,0],"id":16,"left_children":[1,3,5,7,9,11,13,15,17,19,21,-1,23,-1,-1,25,27,29,31,33,35,37,39,41,43,45,47,49,51,53,55,57,59,61,63,65,67,69,71,73,75,77,79,81,83,-1,-1,-1,-1,-1,-1,-1,-1,-1,-1,-1,-1,-1,-1,-1,-1,-1,-1,-1,-1,-1,-1,-1,-1,-1,-1,-1,-1,-1,-1,-1,-1,-1,-1,-1,-1,-1,-1,-1,-1],"loss_changes":[1.6172545E0,2.3508728E0,3.858995E0,3.3921175E0,4.9747324E0,9.1877186E-1,1.5153589E0,3.5079648E0,6.5838394E0,3.3139153E0,4.606083E0,0E0,9.549156E-1,0E0,0E0,1.3578417E1,5.8538322E0,8.7665415E0,3.5579708E0,4.178071E0,3.9661918E0,5.1401415E0,3.731914E0,9.499277E-1,5.8423626E-1,3.1323857E0,1.518536E1,1.0120759E1,6.3140917E0,2.1519093E1,2.1427152E0,2.603685E0,2.3596718E0,9.637675E-1,1.8925295E0,2.660577E0,1.911838E0,1.8171082E0,4.7737103E0,2.7528539E0,2.8017792E-1,5.868188E-1,6.305575E-2,1.6136408E0,1.04426384E-1,0E0,0E0,0E0,0E0,0E0,0E0,0E0,0E0,0E0,0E0,0E0,0E0,0E0,0E0,0E0,0E0,0E0,0E0,0E0,0E0,0E0,0E0,0E0,0E0,0E0,0E0,0E0,0E0,0E0,0E0,0E0,0E0,0E0,0E0,0E0,0E0,0E0,0E0,0E0,0E0],"parents":[2147483647,0,0,1,1,2,2,3,3,4,4,5,5,6,6,7,7,8,8,9,9,10,10,12,12,15,15,16,16,17,17,18,18,19,19,20,20,21,21,22,22,23,23,24,24,25,25,26,26,27,27,28,28,29,29,30,30,31,31,32,32,33,33,34,34,35,35,36,36,37,37,38,38,39,39,40,40,41,41,42,42,43,43,44,44],"right_children":[2,4,6,8,10,12,14,16,18,20,22,-1,24,-1,-1,26,28,30,32,34,36,38,40,42,44,46,48,50,52,54,56,58,60,62,64,66,68,70,72,74,76,78,80,82,84,-1,-1,-1,-1,-1,-1,-1,-1,-1,-1,-1,-1,-1,-1,-1,-1,-1,-1,-1,-1,-1,-1,-1,-1,-1,-1,-1,-1,-1,-1,-1,-1,-1,-1,-1,-1,-1,-1,-1,-1],"split_conditions":[2.0881086E1,1.5578999E1,5.0999994E0,1.4920667E1,1.6545668E1,7.95742E1,2.1056084E1,1.3931083E1,1.8149202E2,1.9543051E2,5.5999994E0,2.3262234E-1,2.2774834E1,5.4268616E-1,4.2252805E-2,1.3643581E1,2E-1,1.5827721E1,2.4290553E2,4.4470886E1,1.9885135E2,2.154146E2,1.9885135E2,2.0592503E1,1.757744E1,2.1000001E0,1.24811535E1,1.6738979E2,8E0,1.3207634E1,1.5012332E1,1.5012332E1,2.5364236E2,1.594775E1,1.0365251E1,1.5785251E1,2.4062433E2,1.8993586E1,2.2443501E2,1.8057508E1,2.3359337E2,1.7072504E1,2.1389418E1,1E-1,1E-1,1.0889973E-2,-2.5692437E-2,-2.9804394E-1,3.657602E-1,3.4870148E-1,-8.039769E-2,-2.2003812E-1,9.064836E-2,4.736673E-2,7.7121145E-1,1.9438267E-1,-1.7083204E-1,2.1273988E-1,-1.6599002E-1,2.323841E-1,-9.4999615E-3,2.2695981E-1,-3.3112977E-2,-3.414125E-2,-3.0928528E-1,4.8891273E-1,-5.9616067E-2,-1.6180536E-1,-2.224216E-2,-9.981692E-2,-1.1519033E-2,1.9051106E-1,2.7124947E-3,3.4341654E-1,-3.432806E-2,6.1827917E-2,-3.7707403E-2,5.762688E-3,-9.1601014E-2,3.904231E-2,1.9247618E-1,-6.619861E-2,2.1375056E-1,2.6887667E-1,5.7147935E-2],"split_indices":[0,0,1,0,0,3,0,0,3,3,1,0,0,0,0,0,1,2,3,3,3,3,3,2,2,1,2,3,1,2,0,0,3,0,2,0,3,0,3,2,3,2,0,1,1,0,0,0,0,0,0,0,0,0,0,0,0,0,0,0,0,0,0,0,0,0,0,0,0,0,0,0,0,0,0,0,0,0,0,0,0,0,0,0,0],"split_type":[0,0,0,0,0,0,0,0,0,0,0,0,0,0,0,0,0,0,0,0,0,0,0,0,0,0,0,0,0,0,0,0,0,0,0,0,0,0,0,0,0,0,0,0,0,0,0,0,0,0,0,0,0,0,0,0,0,0,0,0,0,0,0,0,0,0,0,0,0,0,0,0,0,0,0,0,0,0,0,0,0,0,0,0,0],"sum_hessian":[1.542E3,1.504E3,3.8E1,1.258E3,2.46E2,3.6E1,2E0,1.21E3,4.8E1,6E1,1.86E2,1E0,3.5E1,1E0,1E0,1.156E3,5.4E1,2.1E1,2.7E1,2E1,4E1,1.68E2,1.8E1,2.7E1,8E0,1.137E3,1.9E1,2.2E1,3.2E1,1.5E1,6E0,1.3E1,1.4E1,4E0,1.6E1,2E0,3.8E1,8.9E1,7.9E1,9E0,9E0,2.5E1,2E0,6E0,2E0,8.59E2,2.78E2,3E0,1.6E1,6E0,1.6E1,2.5E1,7E0,1E1,5E0,1E0,5E0,1E0,1.2E1,5E0,9E0,1E0,3E0,3E0,1.3E1,1E0,1E0,1.3E1,2.5E1,5.5E1,3.4E1,1.4E1,6.5E1,7E0,2E0,3E0,6E0,1.8E1,7E0,1E0,1E0,4E0,2E0,1E0,1E0],"tree_param":{"num_deleted":"0","num_feature":"4","num_nodes":"85","size_leaf_vector":"1"}},{"base_weights":[7.186286E-3,-1.8888632E-2,5.3900678E-2,-2.562912E-1,5.9830067E-3,5.274437E-1,1.8922895E-2,1.8211879E-1,-4.0920493E-1,2.5937973E-2,-3.003438E-1,3.0050883E-1,3.0748475E0,-3.0876148E-1,5.868732E-2,4.961712E-1,-3.3857694E-1,-7.854226E-1,-1.5470956E-1,2.5419125E-1,-6.132578E-3,-5.94784E-1,-3.515079E-2,-4.3918815E-1,5.2753615E-1,1.1696541E0,2.140272E-1,-6.664727E-1,-5.7699148E-2,1.247497E0,4.291639E-2,1.1586007E0,-1.7146563E-2,-2.1339498E-1,2.8468886E-2,-1.4979842E-1,-1.1878972E0,6.4859235E-1,-2.6134428E-1,1.3400224E-1,9.0685564E-1,2.6712285E-2,-1.6820577E-1,-3.1503585E-1,-1.474772E0,6.0402083E-1,-1.8714595E-1,-1.0740537E-1,-3.200856E-1,1.5022769E0,1.9341241E-1,-4.1477844E-1,-1.0119106E0,3.0321532E-1,-1.4586708E-1,1.43211195E-2,4.433705E-1,2.4268305E-1,-3.8351662E-2,-8.061875E-2,4.3238315E-1,-7.994626E-2,1.2704602E-1,6.538117E-2,-7.0093565E-2,6.5103084E-2,-1.08098716E-1,-5.3404695E-1,5.838127E-2,-2.6065254E-1,-3.4506224E-2,1.3426208E-1,-9.902787E-3,4.1684705E-1,-3.8735043E-2,-2.8015085E-2,4.309599E-2,-6.855702E-2,1.7756594E-2,7.501891E-3,-1.5786485E-1,-4.8284182E-1,-1.2019036E-1,2.506392E-3,5.373528E-1,1.9291586E-1,-7.4559435E-2,-7.175381E-2,1.0248578E-1,4.2333435E-2,6.0555625E-1,1.18764006E-1,-1.2374437E-1,-1.5547375E-1,1.5506476E-1,-3.5402313E-1,5.001322E-2,2.1422958E-1,-5.5041533E-2,-1.8831031E-1,-1.1822169E-2,2.1912238E-1,6.806874E-3,7.7989675E-2,-3.9134502E-2],"categories":[],"categories_nodes":[],"categories_segments":[],"categories_sizes":[],"default_left":[0,0,0,0,0,0,0,0,0,0,0,0,0,0,0,0,0,0,0,0,0,0,0,0,0,0,0,0,0,0,0,0,0,0,0,0,0,0,0,0,0,0,0,0,0,0,0,0,0,0,0,0,0,0,0,0,0,0,0,0,0,0,0,0,0,0,0,0,0,0,0,0,0,0,0,0,0,0,0,0,0,0,0,0,0,0,0,0,0,0,0,0,0,0,0,0,0,0,0,0,0,0,0,0,0],"id":17,"left_children":[1,3,5,7,9,11,13,15,17,19,21,23,25,27,29,31,33,35,37,39,41,43,45,47,49,-1,-1,51,53,55,57,59,61,-1,63,65,67,-1,69,71,73,75,77,79,81,83,85,87,-1,89,91,93,95,97,99,-1,-1,101,103,-1,-1,-1,-1,-1,-1,-1,-1,-1,-1,-1,-1,-1,-1,-1,-1,-1,-1,-1,-1,-1,-1,-1,-1,-1,-1,-1,-1,-1,-1,-1,-1,-1,-1,-1,-1,-1,-1,-1,-1,-1,-1,-1,-1,-1,-1],"loss_changes":[1.8805062E0,5.8529835E0,9.149625E0,6.3761806E0,5.4970317E0,2.104358E1,6.741694E0,4.256136E0,6.5806828E0,6.179815E0,4.273685E0,6.277218E0,3.0559063E0,4.990782E0,8.589584E0,5.460456E0,1.3883755E0,6.9850864E0,1.1187695E1,8.036558E0,3.9490378E0,5.9359455E0,3.0275695E0,1.7599345E0,8.828594E0,0E0,0E0,1.5800095E0,1.1261458E0,1.5880299E0,7.412306E0,3.2116213E0,1.211533E0,0E0,3.488939E-1,1.0048887E0,1.4266018E1,0E0,3.6334953E0,4.67521E0,8.179344E0,8.678647E0,1.7280118E0,1.521173E0,2.2331142E-1,4.227924E0,1.4338727E0,4.9589658E-1,0E0,4.634018E0,2.8621175E0,1.7138202E0,1.9805737E0,1.530818E0,1.411551E0,0E0,0E0,1.4146536E1,8.962972E0,0E0,0E0,0E0,0E0,0E0,0E0,0E0,0E0,0E0,0E0,0E0,0E0,0E0,0E0,0E0,0E0,0E0,0E0,0E0,0E0,0E0,0E0,0E0,0E0,0E0,0E0,0E0,0E0,0E0,0E0,0E0,0E0,0E0,0E0,0E0,0E0,0E0,0E0,0E0,0E0,0E0,0E0,0E0,0E0,0E0,0E0],"parents":[2147483647,0,0,1,1,2,2,3,3,4,4,5,5,6,6,7,7,8,8,9,9,10,10,11,11,12,12,13,13,14,14,15,15,16,16,17,17,18,18,19,19,20,20,21,21,22,22,23,23,24,24,27,27,28,28,29,29,30,30,31,31,32,32,34,34,35,35,36,36,38,38,39,39,40,40,41,41,42,42,43,43,44,44,45,45,46,46,47,47,49,49,50,50,51,51,52,52,53,53,54,54,57,57,58,58],"right_children":[2,4,6,8,10,12,14,16,18,20,22,24,26,28,30,32,34,36,38,40,42,44,46,48,50,-1,-1,52,54,56,58,60,62,-1,64,66,68,-1,70,72,74,76,78,80,82,84,86,88,-1,90,92,94,96,98,100,-1,-1,102,104,-1,-1,-1,-1,-1,-1,-1,-1,-1,-1,-1,-1,-1,-1,-1,-1,-1,-1,-1,-1,-1,-1,-1,-1,-1,-1,-1,-1,-1,-1,-1,-1,-1,-1,-1,-1,-1,-1,-1,-1,-1,-1,-1,-1,-1,-1],"split_conditions":[9.0000004E-1,1.1440978E1,1.1298495E1,3.7275013E-1,7E-1,1.1165805E1,1.35515E1,1.0787993E1,6.058168E0,1.3004922E1,5.8810825E0,1.2040001E0,-3.5224995E-1,1.7765594E2,1.3779114E1,2.3725418E2,2.181292E2,8.61509E1,6.4581676E0,1.2783802E1,1.5785251E1,3.7435834E0,1.3910169E1,2.5999994E0,4.345667E0,1.1696541E0,2.140272E-1,1.2606051E2,3.7435834E0,1.3627795E1,2.1000001E0,-5.231416E0,2.8769757E2,-2.1339498E-1,3.151938E2,9.36E0,2.154146E2,6.4859235E-1,9.44775E0,2.4060833E0,2.2443501E2,4.6060834E0,1.8486622E1,-1.1522499E0,5.6664996E0,1.27279215E1,1.5374269E1,1.9000001E0,-3.200856E-1,6.1340633E1,1.0594036E1,1.1920013E2,1.4399999E1,1.2682018E1,8.954E0,1.43211195E-2,4.433705E-1,1.8435687E2,1.3416803E2,-8.061875E-2,4.3238315E-1,-7.994626E-2,1.2704602E-1,6.538117E-2,-7.0093565E-2,6.5103084E-2,-1.08098716E-1,-5.3404695E-1,5.838127E-2,-2.6065254E-1,-3.4506224E-2,1.3426208E-1,-9.902787E-3,4.1684705E-1,-3.8735043E-2,-2.8015085E-2,4.309599E-2,-6.855702E-2,1.7756594E-2,7.501891E-3,-1.5786485E-1,-4.8284182E-1,-1.2019036E-1,2.506392E-3,5.373528E-1,1.9291586E-1,-7.4559435E-2,-7.175381E-2,1.0248578E-1,4.2333435E-2,6.0555625E-1,1.18764006E-1,-1.2374437E-1,-1.5547375E-1,1.5506476E-1,-3.5402313E-1,5.001322E-2,2.1422958E-1,-5.5041533E-2,-1.8831031E-1,-1.1822169E-2,2.1912238E-1,6.806874E-3,7.7989675E-2,-3.9134502E-2],"split_indices":[1,2,2,0,1,2,2,2,0,2,0,0,0,3,2,3,3,3,0,2,0,0,2,1,0,0,0,3,0,2,1,0,3,0,3,2,3,0,0,0,3,0,2,0,0,2,3,1,0,3,2,3,1,2,0,0,0,3,3,0,0,0,0,0,0,0,0,0,0,0,0,0,0,0,0,0,0,0,0,0,0,0,0,0,0,0,0,0,0,0,0,0,0,0,0,0,0,0,0,0,0,0,0,0,0],"split_type":[0,0,0,0,0,0,0,0,0,0,0,0,0,0,0,0,0,0,0,0,0,0,0,0,0,0,0,0,0,0,0,0,0,0,0,0,0,0,0,0,0,0,0,0,0,0,0,0,0,0,0,0,0,0,0,0,0,0,0,0,0,0,0,0,0,0,0,0,0,0,0,0,0,0,0,0,0,0,0,0,0,0,0,0,0,0,0,0,0,0,0,0,0,0,0,0,0,0,0,0,0,0,0,0,0],"sum_hessian":[1.542E3,9.9E2,5.52E2,9.3E1,8.97E2,3.7E1,5.15E2,2.4E1,6.9E1,8.43E2,5.4E1,3.5E1,2E0,5.5E1,4.6E2,1.5E1,9E0,2.7E1,4.2E1,1.03E2,7.4E2,2.5E1,2.9E1,8E0,2.7E1,1E0,1E0,2.2E1,3.3E1,5E0,4.55E2,6E0,9E0,4E0,5E0,1.1E1,1.6E1,1E0,4.1E1,8.8E1,1.5E1,6.16E2,1.24E2,2E1,5E0,5E0,2.4E1,6E0,2E0,6E0,2.1E1,1.4E1,8E0,6E0,2.7E1,1E0,4E0,1.31E2,3.24E2,1E0,5E0,6E0,3E0,3E0,2E0,4E0,7E0,1.1E1,5E0,7E0,3.4E1,3E1,5.8E1,1E1,5E0,3.04E2,3.12E2,9.8E1,2.6E1,8E0,1.2E1,4E0,1E0,4E0,1E0,1E0,2.3E1,5E0,1E0,2E0,4E0,1.6E1,5E0,1.3E1,1E0,7E0,1E0,3E0,3E0,4E0,2.3E1,4E1,9.1E1,7.6E1,2.48E2],"tree_param":{"num_deleted":"0","num_feature":"4","num_nodes":"105","size_leaf_vector":"1"}},{"base_weights":[6.6515733E-3,-1.3468386E-1,1.8772721E-2,2.5803695E-2,-2.8539133E-1,9.387773E-2,-2.5092876E-3,-1.240153E-1,2.2649066E-1,-6.686848E-1,-2.1748164E-1,2.3307474E-3,5.889312E-1,-5.7816964E-1,1.40319355E-2,9.816653E-2,-3.393074E-1,5.015923E-1,5.1343217E-2,-1.1087869E-1,-3.4309936E-1,1.1576307E-2,-2.959789E-1,-1.0627011E-1,2.607438E-1,1.4227501E0,-3.3891132E-1,-1.631829E0,-7.2953075E-2,1.8565679E0,1.9985866E-3,2.960356E-1,-7.458489E-2,-5.3222245E-1,1.3522644E-1,-1.3473818E-1,7.9355365E-1,2.6606232E-1,-1.6908069E-1,1.0435453E-1,-1.9485106E-1,-3.5201803E-1,2.6499476E-2,-3.2512885E-2,-5.448775E-1,-4.0401327E-3,5.771257E-1,2.767398E0,-1.347749E-1,-6.4461184E-1,6.856255E-1,-4.8537254E-1,-5.573315E-1,-5.5254686E-1,2.4056813E-1,1.678614E0,3.0086917E-1,-6.113284E-1,1.3042391E-2,5.254084E-3,-8.421129E-2,-1.9285835E-1,-6.798852E-2,1.6976902E-1,-1.9226085E-2,2.3681761E-3,-5.5474058E-2,7.432604E-2,3.4228966E-1,1.3334708E-1,-2.0428536E-2,6.524692E-2,-7.337646E-2,-3.6379874E-2,9.377487E-2,9.084517E-3,-7.76114E-2,-1.7213377E-1,-7.595584E-2,1.9748734E-1,-1.0736263E-1,-3.788474E-2,2.6845434E-1,3.9312896E-1,-2.4941768E-1,9.634065E-2,-2.17135E-1,8.745208E-1,1.281119E-1,-4.844797E-1,1.2328174E0,-1.1680863E-1,1.0513113E-1,-2.6243976E-1,5.2461747E-2,4.6761158E-1,-4.2177197E-2,-4.1723587E-2,-1.7669407E-1,1.553049E-1,-2.7968445E-1,8.395594E-1,-5.144096E-2,-4.4415823E-1,4.685098E-1,-2.2523898E-1,2.9812906E-2,-3.3269613E-3,6.1982337E-2],"categories":[],"categories_nodes":[],"categories_segments":[],"categories_sizes":[],"default_left":[0,0,0,0,0,0,0,0,0,0,0,0,0,0,0,0,0,0,0,0,0,0,0,0,0,0,0,0,0,0,0,0,0,0,0,0,0,0,0,0,0,0,0,0,0,0,0,0,0,0,0,0,0,0,0,0,0,0,0,0,0,0,0,0,0,0,0,0,0,0,0,0,0,0,0,0,0,0,0,0,0,0,0,0,0,0,0,0,0,0,0,0,0,0,0,0,0,0,0,0,0,0,0,0,0,0,0,0,0],"id":18,"left_children":[1,3,5,7,9,11,13,15,17,19,21,23,25,27,29,31,33,35,37,-1,-1,39,41,43,45,47,49,51,53,55,57,-1,59,61,63,65,67,69,71,73,75,77,79,81,83,85,87,89,91,93,95,97,-1,99,101,-1,103,105,107,-1,-1,-1,-1,-1,-1,-1,-1,-1,-1,-1,-1,-1,-1,-1,-1,-1,-1,-1,-1,-1,-1,-1,-1,-1,-1,-1,-1,-1,-1,-1,-1,-1,-1,-1,-1,-1,-1,-1,-1,-1,-1,-1,-1,-1,-1,-1,-1,-1,-1],"loss_changes":[2.6459153E0,2.9581378E0,2.27314E0,1.8320916E0,1.494422E0,1.4229314E1,1.05681505E1,1.7074986E0,1.2270136E0,8.5585785E-1,9.923494E-1,7.4927015E0,3.8391163E1,1.638306E1,2.3919744E1,2.8367817E0,1.7197754E0,1.964761E0,8.495828E-1,0E0,0E0,3.0761307E-1,7.5025606E-1,6.0641727E0,6.620386E0,5.482537E1,7.9587955E0,1.6886234E0,3.440907E0,3.9031776E1,7.2758994E0,0E0,3.0864874E-1,2.9384613E-1,5.512967E-1,3.0086145E-2,1.0446439E0,5.668747E-1,3.1589615E-1,5.5469286E-1,7.971175E-2,6.218252E-1,1.9355E0,1.4200234E1,1.5441948E1,1.0530322E1,1.1387289E1,8.89712E1,1.7423208E0,3.7370405E0,4.5472546E0,2.572155E-2,0E0,4.140256E0,1.5235554E1,0E0,1.5788369E1,1.9579053E0,4.930377E0,0E0,0E0,0E0,0E0,0E0,0E0,0E0,0E0,0E0,0E0,0E0,0E0,0E0,0E0,0E0,0E0,0E0,0E0,0E0,0E0,0E0,0E0,0E0,0E0,0E0,0E0,0E0,0E0,0E0,0E0,0E0,0E0,0E0,0E0,0E0,0E0,0E0,0E0,0E0,0E0,0E0,0E0,0E0,0E0,0E0,0E0,0E0,0E0,0E0,0E0],"parents":[2147483647,0,0,1,1,2,2,3,3,4,4,5,5,6,6,7,7,8,8,9,9,10,10,11,11,12,12,13,13,14,14,15,15,16,16,17,17,18,18,21,21,22,22,23,23,24,24,25,25,26,26,27,27,28,28,29,29,30,30,32,32,33,33,34,34,35,35,36,36,37,37,38,38,39,39,40,40,41,41,42,42,43,43,44,44,45,45,46,46,47,47,48,48,49,49,50,50,51,51,53,53,54,54,56,56,57,57,58,58],"right_children":[2,4,6,8,10,12,14,16,18,20,22,24,26,28,30,32,34,36,38,-1,-1,40,42,44,46,48,50,52,54,56,58,-1,60,62,64,66,68,70,72,74,76,78,80,82,84,86,88,90,92,94,96,98,-1,100,102,-1,104,106,108,-1,-1,-1,-1,-1,-1,-1,-1,-1,-1,-1,-1,-1,-1,-1,-1,-1,-1,-1,-1,-1,-1,-1,-1,-1,-1,-1,-1,-1,-1,-1,-1,-1,-1,-1,-1,-1,-1,-1,-1,-1,-1,-1,-1,-1,-1,-1,-1,-1,-1],"split_conditions":[4.4470886E1,1.4658676E1,1.639867E2,1.24811535E1,1.5827721E1,1.5238425E2,1.7175021E2,1.0787993E1,1.4706668E0,2.0206668E0,-1.3105835E0,2.6999996E0,8.000001E-1,9.331083E0,1.7280525E2,-9.314167E-1,2.0206668E0,-3.36475E0,1E-1,-1.1087869E-1,-3.4309936E-1,2.1626984E1,1.5526916E1,1.4046825E2,6.7915006E0,9.44775E0,2.2127556E1,1.6666016E2,1.4039416E1,9.4775003E-1,1.7765594E2,2.960356E-1,2.7552713E1,1.2181625E1,5.6664996E0,-1.0468915E1,1.8217197E1,1.5012332E1,7.4207864E0,1.8E1,-6.8314166E0,1.6921593E1,1.5374269E1,1.3640907E2,9.793058E0,3.3581665E0,7.729E0,1.1298495E1,2.0549833E1,1.0889417E1,1.3306084E1,-2.3349999E-1,-5.573315E-1,1.0462333E1,1.4301915E1,1.678614E0,1.7555305E1,1.6470667E1,4.6E0,5.254084E-3,-8.421129E-2,-1.9285835E-1,-6.798852E-2,1.6976902E-1,-1.9226085E-2,2.3681761E-3,-5.5474058E-2,7.432604E-2,3.4228966E-1,1.3334708E-1,-2.0428536E-2,6.524692E-2,-7.337646E-2,-3.6379874E-2,9.377487E-2,9.084517E-3,-7.76114E-2,-1.7213377E-1,-7.595584E-2,1.9748734E-1,-1.0736263E-1,-3.788474E-2,2.6845434E-1,3.9312896E-1,-2.4941768E-1,9.634065E-2,-2.17135E-1,8.745208E-1,1.281119E-1,-4.844797E-1,1.2328174E0,-1.1680863E-1,1.0513113E-1,-2.6243976E-1,5.2461747E-2,4.6761158E-1,-4.2177197E-2,-4.1723587E-2,-1.7669407E-1,1.553049E-1,-2.7968445E-1,8.395594E-1,-5.144096E-2,-4.4415823E-1,4.685098E-1,-2.2523898E-1,2.9812906E-2,-3.3269613E-3,6.1982337E-2],"split_indices":[3,2,3,2,2,3,3,2,0,0,0,1,1,0,3,0,0,0,1,0,0,2,0,3,0,0,2,3,0,0,3,0,3,2,0,0,3,0,3,2,0,3,3,3,2,0,0,2,0,0,0,0,0,0,0,0,2,0,1,0,0,0,0,0,0,0,0,0,0,0,0,0,0,0,0,0,0,0,0,0,0,0,0,0,0,0,0,0,0,0,0,0,0,0,0,0,0,0,0,0,0,0,0,0,0,0,0,0,0],"split_type":[0,0,0,0,0,0,0,0,0,0,0,0,0,0,0,0,0,0,0,0,0,0,0,0,0,0,0,0,0,0,0,0,0,0,0,0,0,0,0,0,0,0,0,0,0,0,0,0,0,0,0,0,0,0,0,0,0,0,0,0,0,0,0,0,0,0,0,0,0,0,0,0,0,0,0,0,0,0,0,0,0,0,0,0,0,0,0,0,0,0,0,0,0,0,0,0,0,0,0,0,0,0,0,0,0,0,0,0,0],"sum_hessian":[1.542E3,1.21E2,1.421E3,5.9E1,6.2E1,3.13E2,1.108E3,3.4E1,2.5E1,8E0,5.4E1,2.65E2,4.8E1,3E1,1.078E3,1.7E1,1.7E1,9E0,1.6E1,6E0,2E0,1.4E1,4E1,1.87E2,7.8E1,2.5E1,2.3E1,9E0,2.1E1,6E0,1.072E3,2E0,1.5E1,1.2E1,5E0,3E0,6E0,8E0,8E0,1E1,4E0,3.4E1,6E0,1.61E2,2.6E1,4.3E1,3.5E1,1.3E1,1.2E1,1.8E1,5E0,2E0,7E0,8E0,1.3E1,1E0,5E0,1.8E1,1.054E3,1.1E1,4E0,8E0,4E0,1E0,4E0,1E0,2E0,3E0,3E0,5E0,3E0,1E0,7E0,5E0,5E0,1E0,3E0,9E0,2.5E1,2E0,4E0,1.47E2,1.4E1,3E0,2.3E1,3E1,1.3E1,1E0,3.4E1,3E0,1E1,8E0,4E0,1.4E1,4E0,2E0,3E0,1E0,1E0,2E0,6E0,1E0,1.2E1,2E0,3E0,1.5E1,3E0,9.38E2,1.16E2],"tree_param":{"num_deleted":"0","num_feature":"4","num_nodes":"109","size_leaf_vector":"1"}},{"base_weights":[6.9985627E-3,1.3213237E-2,-1.5234634E-1,6.0896412E-3,3.3670133E-1,-3.5434783E-1,-5.2586976E-2,1.3988908E-2,-2.417316E-1,1.3931209E0,1.3602993E-1,-1.4664029E-1,-6.894693E-1,-9.735409E-2,1.5959765E-1,4.5151697E-3,8.396983E-1,-3.1243277E-1,4.3036798E-1,6.3000107E-1,2.2186454E-1,-3.1557992E-1,3.2066283E-1,-3.7949407E-1,1.8827145E-1,-1.0881746E0,-1.183967E-1,-2.8232428E-1,2.2308707E-2,4.517668E-2,-5.0946243E-2,1.3903615E0,-6.498331E-1,-6.2566787E-1,7.674487E-4,-2.9864216E-2,1.2970327E-1,1.7600633E0,4.437807E-2,-9.681523E-3,-4.24487E-1,1.0517192E-2,6.357085E-2,-8.811933E-2,-3.765236E-1,-6.547301E-2,2.7171494E-2,-7.0093715E-1,-6.6379875E-2,-2.4602404E-1,1.4727066E-1,3.8960953E-3,1.4796227E-1,-6.14125E-2,9.008713E-3,7.14843E-1,2.3348929E-4,-2.9066432E-1,-3.4252252E-2,-7.9345845E-2,-3.097912E-1,1.5878914E-1,-2.2432001E-2,7.6679903E-1,-9.416049E-2,-1.4120242E-2,1.9176671E-1,-3.9950754E-2,-1.5431409E-1,-4.4719007E-2,-2.4049194E-1,1.2228596E-1,-6.510127E-2,-1.2176702E-1,4.5943335E-3,1.0447311E-1,-5.6874823E-2],"categories":[],"categories_nodes":[],"categories_segments":[],"categories_sizes":[],"default_left":[0,0,0,0,0,0,0,0,0,0,0,0,0,0,0,0,0,0,0,0,0,0,0,0,0,0,0,0,0,0,0,0,0,0,0,0,0,0,0,0,0,0,0,0,0,0,0,0,0,0,0,0,0,0,0,0,0,0,0,0,0,0,0,0,0,0,0,0,0,0,0,0,0,0,0,0,0],"id":19,"left_children":[1,3,5,7,9,11,13,15,17,19,21,23,25,27,-1,29,31,33,-1,-1,35,-1,37,39,41,43,45,47,49,51,53,55,57,59,61,-1,-1,63,65,-1,67,-1,-1,-1,-1,-1,-1,69,71,73,75,-1,-1,-1,-1,-1,-1,-1,-1,-1,-1,-1,-1,-1,-1,-1,-1,-1,-1,-1,-1,-1,-1,-1,-1,-1,-1],"loss_changes":[1.5300099E0,3.4222856E0,1.1501555E0,2.8516986E0,6.594275E0,1.2214339E0,1.0985883E0,1.10338335E1,5.781412E0,3.673789E0,6.478753E0,1.085259E0,1.4649913E0,8.473922E-1,0E0,3.1504836E0,1.4027187E1,4.3171124E0,0E0,0E0,2.4599077E-1,0E0,9.864002E0,1.11281514E-1,1.4295235E-2,1.617279E-1,1.0322583E-1,1.3094285E0,8.409854E-1,1.161771E1,7.3646455E0,1.654722E1,7.438834E-1,2.960661E0,9.578649E-1,0E0,0E0,7.4050913E0,1.2267953E0,0E0,1.1481285E-1,0E0,0E0,0E0,0E0,0E0,0E0,1.5838075E-1,8.738103E-1,3.404491E-1,